{"learner":{"attributes":{"scikit_learn":"{\"_estimator_type\": \"classifier\"}"},"feature_names":[],"feature_types":[],"gradient_booster":{"model":{"cats":{"enc":[],"feature_segments":[],"sorted_idx":[]},"gbtree_model_param":{"num_parallel_tree":"1","num_trees":"150"},"iteration_indptr":[0,3,6,9,12,15,18,21,24,27,30,33,36,39,42,45,48,51,54,57,60,63,66,69,72,75,78,81,84,87,90,93,96,99,102,105,108,111,114,117,120,123,126,129,132,135,138,141,144,147,150],"tree_info":[0,1,2,0,1,2,0,1,2,0,1,2,0,1,2,0,1,2,0,1,2,0,1,2,0,1,2,0,1,2,0,1,2,0,1,2,0,1,2,0,1,2,0,1,2,0,1,2,0,1,2,0,1,2,0,1,2,0,1,2,0,1,2,0,1,2,0,1,2,0,1,2,0,1,2,0,1,2,0,1,2,0,1,2,0,1,2,0,1,2,0,1,2,0,1,2,0,1,2,0,1,2,0,1,2,0,1,2,0,1,2,0,1,2,0,1,2,0,1,2,0,1,2,0,1,2,0,1,2,0,1,2,0,1,2,0,1,2,0,1,2,0,1,2,0,1,2,0,1,2],"trees":[{"base_weights":[-4.843258E-5,-2.5807884E-1,7.900115E-1,-5.04061E-1,2.7881795E-1,9.083097E-1,4.90489E-1,-4.860465E-2,-6.507196E-2,3.0511944E-2,-4.277603E-2,9.421347E-2,-3.133164E-3,5.5539247E-2,-4.4586034E-3],"categories":[],"categories_nodes":[],"categories_segments":[],"categories_sizes":[],"default_left":[0,0,0,0,0,0,0,0,0,0,0,0,0,0,0],"id":0,"left_children":[1,3,5,7,9,11,13,-1,-1,-1,-1,-1,-1,-1,-1],"loss_changes":[4.213232E3,2.0576416E3,1.7984155E2,2.791211E1,9.1111786E1,1.15921875E2,5.0129852E1,0E0,0E0,0E0,0E0,0E0,0E0,0E0,0E0],"parents":[2147483647,0,0,1,1,2,2,3,3,4,4,5,5,6,6],"right_children":[2,4,6,8,10,12,14,-1,-1,-1,-1,-1,-1,-1,-1],"split_conditions":[1E0,1E0,1.5816439E0,1E0,1E0,1E0,1E0,-4.860465E-2,-6.507196E-2,3.0511944E-2,-4.277603E-2,9.421347E-2,-3.133164E-3,5.5539247E-2,-4.4586034E-3],"split_indices":[10,11,32,0,22,22,2,0,0,0,0,0,0,0,0],"split_type":[0,0,0,0,0,0,0,0,0,0,0,0,0,0,0],"sum_hessian":[2.0665332E4,1.5578222E4,5.087111E3,1.0683555E4,4.8946665E3,3.645333E3,1.4417777E3,9.518666E3,1.1648888E3,4.719555E3,1.751111E2,3.5186665E3,1.2666666E2,1.2857777E3,1.5599998E2],"tree_param":{"num_deleted":"0","num_feature":"33","num_nodes":"15","size_leaf_vector":"1"}},{"base_weights":[6.4509927E-4,6.657565E-2,-1.9972645E-1,8.34951E-2,-7.62901E-2,-2.6130643E-1,-4.1573167E-2,9.315531E-3,-1.7278528E-2,-1.8407581E-2,1.725752E-2,-2.3067577E-2,-5.1680323E-2,-1.3484358E-3,-2.8076647E-2],"categories":[],"categories_nodes":[],"categories_segments":[],"categories_sizes":[],"default_left":[0,0,0,0,0,0,0,0,0,0,0,0,0,0,0],"id":1,"left_children":[1,3,5,7,9,11,13,-1,-1,-1,-1,-1,-1,-1,-1],"loss_changes":[2.7303983E2,3.7596947E1,4.982396E1,3.4440964E1,4.4217056E1,2.8702347E1,9.638976E0,0E0,0E0,0E0,0E0,0E0,0E0,0E0,0E0],"parents":[2147483647,0,0,1,1,2,2,3,3,4,4,5,5,6,6],"right_children":[2,4,6,8,10,12,14,-1,-1,-1,-1,-1,-1,-1,-1],"split_conditions":[1E0,1E0,1.5816439E0,1E0,1E0,1E0,1E0,9.315531E-3,-1.7278528E-2,-1.8407581E-2,1.725752E-2,-2.3067577E-2,-5.1680323E-2,-1.3484358E-3,-2.8076647E-2],"split_indices":[10,1,32,22,11,9,9,0,0,0,0,0,0,0,0],"split_type":[0,0,0,0,0,0,0,0,0,0,0,0,0,0,0],"sum_hessian":[2.066622E4,1.5550222E4,5.1159995E3,1.3903999E4,1.6462222E3,3.6817776E3,1.4342222E3,1.3399555E4,5.0444443E2,1.1488888E3,4.973333E2,3.2893333E3,3.9244443E2,1.2844443E3,1.4977777E2],"tree_param":{"num_deleted":"0","num_feature":"33","num_nodes":"15","size_leaf_vector":"1"}},{"base_weights":[9.629908E-4,1.9184966E-1,-5.852082E-1,4.6110123E-1,-3.938037E-1,-6.059972E-1,3.1893644E-2,4.1915473E-2,8.098639E-2,-4.245158E-2,4.1723073E-2,-6.731018E-2,-4.365149E-2,-7.912093E-3,1.04697995E-1],"categories":[],"categories_nodes":[],"categories_segments":[],"categories_sizes":[],"default_left":[0,0,0,0,0,0,0,0,0,0,0,0,0,0,0],"id":2,"left_children":[1,3,5,7,9,11,13,-1,-1,-1,-1,-1,-1,-1,-1],"loss_changes":[2.3238533E3,2.4706458E3,6.547131E1,1.5667773E2,1.2309546E2,5.583972E1,1.8927E1,0E0,0E0,0E0,0E0,0E0,0E0,0E0,0E0],"parents":[2147483647,0,0,1,1,2,2,3,3,4,4,5,5,6,6],"right_children":[2,4,6,8,10,12,14,-1,-1,-1,-1,-1,-1,-1,-1],"split_conditions":[1E0,1E0,1E0,1E0,1E0,1.5816439E0,1E0,4.1915473E-2,8.098639E-2,-4.245158E-2,4.1723073E-2,-6.731018E-2,-4.365149E-2,-7.912093E-3,1.04697995E-1],"split_indices":[10,11,22,1,22,32,14,0,0,0,0,0,0,0,0],"split_type":[0,0,0,0,0,0,0,0,0,0,0,0,0,0,0],"sum_hessian":[2.0766666E4,1.5665776E4,5.1008887E3,1.0731999E4,4.9337773E3,4.9346665E3,1.6622221E2,9.581777E3,1.1502222E3,4.754222E3,1.7955554E2,3.5328887E3,1.4017777E3,1.5066666E2,1.5555554E1],"tree_param":{"num_deleted":"0","num_feature":"33","num_nodes":"15","size_leaf_vector":"1"}},{"base_weights":[1.4157954E-3,-2.4159095E-1,7.045591E-1,-4.7840676E-1,2.529405E-1,8.083441E-1,4.3262112E-1,-4.60979E-2,-6.2294405E-2,2.9531205E-2,-1.1380623E-2,8.330716E-2,8.632406E-3,4.9693145E-2,-1.1496432E-2],"categories":[],"categories_nodes":[],"categories_segments":[],"categories_sizes":[],"default_left":[0,0,0,0,0,0,0,0,0,0,0,0,0,0,0],"id":3,"left_children":[1,3,5,7,9,11,13,-1,-1,-1,-1,-1,-1,-1,-1],"loss_changes":[3.5366382E3,1.8015496E3,1.4968506E2,2.5913818E1,7.74436E1,6.860132E1,5.184427E1,0E0,0E0,0E0,0E0,0E0,0E0,0E0,0E0],"parents":[2147483647,0,0,1,1,2,2,3,3,4,4,5,5,6,6],"right_children":[2,4,6,8,10,12,14,-1,-1,-1,-1,-1,-1,-1,-1],"split_conditions":[1E0,1E0,1.5816439E0,1E0,1E0,1E0,1E0,-4.60979E-2,-6.2294405E-2,2.9531205E-2,-1.1380623E-2,8.330716E-2,8.632406E-3,4.9693145E-2,-1.1496432E-2],"split_indices":[10,11,32,0,1,22,1,0,0,0,0,0,0,0,0],"split_type":[0,0,0,0,0,0,0,0,0,0,0,0,0,0,0],"sum_hessian":[2.069601E4,1.5380987E4,5.315022E3,1.0400528E4,4.980459E3,3.845439E3,1.4695828E3,9.28515E3,1.1153783E3,4.4648174E3,5.156413E2,3.717954E3,1.2748496E2,1.3152122E3,1.5437054E2],"tree_param":{"num_deleted":"0","num_feature":"33","num_nodes":"15","size_leaf_vector":"1"}},{"base_weights":[-2.7262014E-3,5.9980053E-2,-1.9473103E-1,7.540998E-2,-7.2130576E-2,-1.6540986E-1,-4.4819212E-1,9.407418E-3,-6.3420865E-3,-1.8173162E-2,1.679757E-2,-2.1936534E-2,-3.3195873E-3,-5.1178765E-2,-2.9280582E-2],"categories":[],"categories_nodes":[],"categories_segments":[],"categories_sizes":[],"default_left":[0,0,0,0,0,0,0,0,0,0,0,0,0,0,0],"id":4,"left_children":[1,3,5,7,9,11,13,-1,-1,-1,-1,-1,-1,-1,-1],"loss_changes":[2.4909106E2,3.179628E1,3.7778015E1,3.619168E1,4.2965088E1,3.2570442E1,5.0631104E0,0E0,0E0,0E0,0E0,0E0,0E0,0E0,0E0],"parents":[2147483647,0,0,1,1,2,2,3,3,4,4,5,5,6,6],"right_children":[2,4,6,8,10,12,14,-1,-1,-1,-1,-1,-1,-1,-1],"split_conditions":[1E0,1E0,1E0,1E0,1E0,1.5816439E0,1.5816439E0,9.407418E-3,-6.3420865E-3,-1.8173162E-2,1.679757E-2,-2.1936534E-2,-3.3195873E-3,-5.1178765E-2,-2.9280582E-2],"split_indices":[10,1,9,0,11,32,32,0,0,0,0,0,0,0,0],"split_type":[0,0,0,0,0,0,0,0,0,0,0,0,0,0,0],"sum_hessian":[2.0686822E4,1.5594538E4,5.0922837E3,1.3964031E4,1.630507E3,4.5657554E3,5.2652826E2,1.2309486E4,1.6545453E3,1.1196602E3,5.1084683E2,3.2420437E3,1.3237118E3,3.719892E2,1.5453906E2],"tree_param":{"num_deleted":"0","num_feature":"33","num_nodes":"15","size_leaf_vector":"1"}},{"base_weights":[1.520256E-3,1.763096E-1,-5.5765784E-1,4.193725E-1,-3.699215E-1,-5.796059E-1,5.037711E-2,3.7795592E-2,7.606689E-2,-3.9860666E-2,3.7479278E-2,-6.436108E-2,-4.2119715E-2,-3.6791556E-3,9.2467524E-2],"categories":[],"categories_nodes":[],"categories_segments":[],"categories_sizes":[],"default_left":[0,0,0,0,0,0,0,0,0,0,0,0,0,0,0],"id":5,"left_children":[1,3,5,7,9,11,13,-1,-1,-1,-1,-1,-1,-1,-1],"loss_changes":[2.0262117E3,2.0971047E3,6.59137E1,1.5422217E2,1.0406177E2,4.804126E1,1.3212391E1,0E0,0E0,0E0,0E0,0E0,0E0,0E0,0E0],"parents":[2147483647,0,0,1,1,2,2,3,3,4,4,5,5,6,6],"right_children":[2,4,6,8,10,12,14,-1,-1,-1,-1,-1,-1,-1,-1],"split_conditions":[1E0,1E0,1E0,1E0,1E0,1.5816439E0,1E0,3.7795592E-2,7.606689E-2,-3.9860666E-2,3.7479278E-2,-6.436108E-2,-4.2119715E-2,-3.6791556E-3,9.2467524E-2],"split_indices":[10,11,22,0,22,32,14,0,0,0,0,0,0,0,0],"split_type":[0,0,0,0,0,0,0,0,0,0,0,0,0,0,0],"sum_hessian":[2.072897E4,1.5793029E4,4.9359414E3,1.092973E4,4.863299E3,4.7640225E3,1.7191862E2,9.748812E3,1.1809186E3,4.683368E3,1.7993085E2,3.390878E3,1.3731447E3,1.5720319E2,1.4715445E1],"tree_param":{"num_deleted":"0","num_feature":"33","num_nodes":"15","size_leaf_vector":"1"}},{"base_weights":[1.6129022E-3,-2.2606209E-1,6.3600576E-1,-4.541155E-1,2.2954069E-1,7.280487E-1,3.9224738E-1,-4.7028925E-2,-3.0141875E-2,2.7371604E-2,-1.5760388E-2,7.5237565E-2,2.664714E-3,4.45784E-2,-8.687782E-3],"categories":[],"categories_nodes":[],"categories_segments":[],"categories_sizes":[],"default_left":[0,0,0,0,0,0,0,0,0,0,0,0,0,0,0],"id":6,"left_children":[1,3,5,7,9,11,13,-1,-1,-1,-1,-1,-1,-1,-1],"loss_changes":[2.9822295E3,1.5788322E3,1.2206079E2,2.48667E1,8.6737976E1,6.750195E1,3.8434082E1,0E0,0E0,0E0,0E0,0E0,0E0,0E0,0E0],"parents":[2147483647,0,0,1,1,2,2,3,3,4,4,5,5,6,6],"right_children":[2,4,6,8,10,12,14,-1,-1,-1,-1,-1,-1,-1,-1],"split_conditions":[1E0,1E0,1.5816439E0,1E0,1E0,1E0,1E0,-4.7028925E-2,-3.0141875E-2,2.7371604E-2,-1.5760388E-2,7.5237565E-2,2.664714E-3,4.45784E-2,-8.687782E-3],"split_indices":[10,11,32,4,1,22,1,0,0,0,0,0,0,0,0],"split_type":[0,0,0,0,0,0,0,0,0,0,0,0,0,0,0],"sum_hessian":[2.06455E4,1.5193429E4,5.452072E3,1.0125221E4,5.068208E3,3.9562205E3,1.4958513E3,9.153588E3,9.7163336E2,4.54939E3,5.188177E2,3.8235347E3,1.326859E2,1.3455693E3,1.5028194E2],"tree_param":{"num_deleted":"0","num_feature":"33","num_nodes":"15","size_leaf_vector":"1"}},{"base_weights":[7.898986E-4,5.796204E-2,-1.8073274E-1,6.727125E-2,-1.9118482E-1,-1.5181041E-1,-4.2669067E-1,8.196255E-3,-5.733786E-3,3.48633E-4,-4.9511477E-2,-2.0174665E-2,-2.719133E-3,-4.908109E-2,-2.691218E-2],"categories":[],"categories_nodes":[],"categories_segments":[],"categories_sizes":[],"default_left":[0,0,0,0,0,0,0,0,0,0,0,0,0,0,0],"id":7,"left_children":[1,3,5,7,9,11,13,-1,-1,-1,-1,-1,-1,-1,-1],"loss_changes":[2.1441296E2,3.645395E1,3.5137543E1,2.7733002E1,3.3500114E1,2.755883E1,5.122902E0,0E0,0E0,0E0,0E0,0E0,0E0,0E0,0E0],"parents":[2147483647,0,0,1,1,2,2,3,3,4,4,5,5,6,6],"right_children":[2,4,6,8,10,12,14,-1,-1,-1,-1,-1,-1,-1,-1],"split_conditions":[1E0,1E0,1E0,1E0,1E0,1.5816439E0,1.5816439E0,8.196255E-3,-5.733786E-3,3.48633E-4,-4.9511477E-2,-2.0174665E-2,-2.719133E-3,-4.908109E-2,-2.691218E-2],"split_indices":[10,22,9,1,13,32,32,0,0,0,0,0,0,0,0],"split_type":[0,0,0,0,0,0,0,0,0,0,0,0,0,0,0],"sum_hessian":[2.0658248E4,1.5710706E4,4.9475435E3,1.5145533E4,5.6517255E2,4.4284204E3,5.191232E2,1.3548518E4,1.5970157E3,3.4511215E2,2.2006038E2,3.1611099E3,1.2673103E3,3.6747147E2,1.5165173E2],"tree_param":{"num_deleted":"0","num_feature":"33","num_nodes":"15","size_leaf_vector":"1"}},{"base_weights":[-4.5201462E-4,1.6146204E-1,-5.363155E-1,3.78789E-1,-3.5586417E-1,-5.587361E-1,7.0470154E-2,3.422213E-2,6.7337796E-2,-3.8268466E-2,3.2656297E-2,-6.2140156E-2,-4.0416736E-2,-4.5781326E-3,9.163144E-2],"categories":[],"categories_nodes":[],"categories_segments":[],"categories_sizes":[],"default_left":[0,0,0,0,0,0,0,0,0,0,0,0,0,0,0],"id":8,"left_children":[1,3,5,7,9,11,13,-1,-1,-1,-1,-1,-1,-1,-1],"loss_changes":[1.7914545E3,1.7828516E3,6.521985E1,1.2005676E2,8.598804E1,4.4503418E1,1.6916475E1,0E0,0E0,0E0,0E0,0E0,0E0,0E0,0E0],"parents":[2147483647,0,0,1,1,2,2,3,3,4,4,5,5,6,6],"right_children":[2,4,6,8,10,12,14,-1,-1,-1,-1,-1,-1,-1,-1],"split_conditions":[1E0,1E0,1E0,1E0,1E0,1.5816439E0,1E0,3.422213E-2,6.7337796E-2,-3.8268466E-2,3.2656297E-2,-6.2140156E-2,-4.0416736E-2,-4.5781326E-3,9.163144E-2],"split_indices":[10,11,22,1,22,32,14,0,0,0,0,0,0,0,0],"split_type":[0,0,0,0,0,0,0,0,0,0,0,0,0,0,0],"sum_hessian":[2.0645482E4,1.585539E4,4.7900933E3,1.1165196E4,4.690193E3,4.6194834E3,1.7061E2,9.934212E3,1.2309849E3,4.513254E3,1.7693903E2,3.2847546E3,1.3347288E3,1.5082652E2,1.9783482E1],"tree_param":{"num_deleted":"0","num_feature":"33","num_nodes":"15","size_leaf_vector":"1"}},{"base_weights":[-2.4103818E-3,-2.1667324E-1,5.7619685E-1,-4.3441498E-1,2.0429875E-1,6.657134E-1,3.4448063E-1,-4.5148395E-2,-2.6839009E-2,2.4505313E-2,-1.5575583E-2,6.85736E-2,8.887886E-3,4.034957E-2,-1.7725568E-2],"categories":[],"categories_nodes":[],"categories_segments":[],"categories_sizes":[],"default_left":[0,0,0,0,0,0,0,0,0,0,0,0,0,0,0],"id":9,"left_children":[1,3,5,7,9,11,13,-1,-1,-1,-1,-1,-1,-1,-1],"loss_changes":[2.5402732E3,1.3707375E3,1.1462683E2,2.7808838E1,7.484946E1,4.6058594E1,4.764612E1,0E0,0E0,0E0,0E0,0E0,0E0,0E0,0E0],"parents":[2147483647,0,0,1,1,2,2,3,3,4,4,5,5,6,6],"right_children":[2,4,6,8,10,12,14,-1,-1,-1,-1,-1,-1,-1,-1],"split_conditions":[1E0,1E0,1.5816439E0,1E0,1E0,1E0,1E0,-4.5148395E-2,-2.6839009E-2,2.4505313E-2,-1.5575583E-2,6.85736E-2,8.887886E-3,4.034957E-2,-1.7725568E-2],"split_indices":[10,11,32,9,1,22,2,0,0,0,0,0,0,0,0],"split_type":[0,0,0,0,0,0,0,0,0,0,0,0,0,0,0],"sum_hessian":[2.0488357E4,1.4952101E4,5.536256E3,9.85481E3,5.097291E3,3.9921404E3,1.5441158E3,8.934534E3,9.202752E2,4.579284E3,5.180071E2,3.858035E3,1.3410547E2,1.3874087E3,1.5670708E2],"tree_param":{"num_deleted":"0","num_feature":"33","num_nodes":"15","size_leaf_vector":"1"}},{"base_weights":[1.5698788E-3,5.428044E-2,-1.6630788E-1,6.982212E-2,-7.729603E-2,-2.1882744E-1,-3.9336067E-2,8.7576555E-3,-6.2928014E-3,-1.6818333E-2,1.190594E-2,-1.9076893E-2,-4.6269447E-2,-1.9152699E-3,-2.230943E-2],"categories":[],"categories_nodes":[],"categories_segments":[],"categories_sizes":[],"default_left":[0,0,0,0,0,0,0,0,0,0,0,0,0,0,0],"id":10,"left_children":[1,3,5,7,9,11,13,-1,-1,-1,-1,-1,-1,-1,-1],"loss_changes":[1.8285507E2,3.216437E1,3.2918976E1,3.3156494E1,2.967707E1,2.381108E1,5.3588247E0,0E0,0E0,0E0,0E0,0E0,0E0,0E0,0E0],"parents":[2147483647,0,0,1,1,2,2,3,3,4,4,5,5,6,6],"right_children":[2,4,6,8,10,12,14,-1,-1,-1,-1,-1,-1,-1,-1],"split_conditions":[1E0,1E0,1.5816439E0,1E0,1E0,1E0,1E0,8.7576555E-3,-6.2928014E-3,-1.6818333E-2,1.190594E-2,-1.9076893E-2,-4.6269447E-2,-1.9152699E-3,-2.230943E-2],"split_indices":[10,1,32,0,11,9,9,0,0,0,0,0,0,0,0],"split_type":[0,0,0,0,0,0,0,0,0,0,0,0,0,0,0],"sum_hessian":[2.0662066E4,1.5725288E4,4.936778E3,1.4064477E4,1.6608115E3,3.4917544E3,1.4450232E3,1.2405645E4,1.6588315E3,1.1354075E3,5.2540405E2,3.1330576E3,3.586967E2,1.3030094E3,1.4201381E2],"tree_param":{"num_deleted":"0","num_feature":"33","num_nodes":"15","size_leaf_vector":"1"}},{"base_weights":[-3.1292867E-3,1.4398645E-1,-5.104882E-1,3.4003717E-1,-3.3287156E-1,-5.3164935E-1,7.026282E-2,3.0355541E-2,6.3564196E-2,-3.5929058E-2,3.16861E-2,-5.9385236E-2,-3.782086E-2,-2.595989E-3,8.106776E-2],"categories":[],"categories_nodes":[],"categories_segments":[],"categories_sizes":[],"default_left":[0,0,0,0,0,0,0,0,0,0,0,0,0,0,0],"id":11,"left_children":[1,3,5,7,9,11,13,-1,-1,-1,-1,-1,-1,-1,-1],"loss_changes":[1.5288634E3,1.4845944E3,5.662085E1,1.2116174E2,7.953345E1,4.217688E1,1.1616359E1,0E0,0E0,0E0,0E0,0E0,0E0,0E0,0E0],"parents":[2147483647,0,0,1,1,2,2,3,3,4,4,5,5,6,6],"right_children":[2,4,6,8,10,12,14,-1,-1,-1,-1,-1,-1,-1,-1],"split_conditions":[1E0,1E0,1E0,1E0,1E0,1.5816439E0,1E0,3.0355541E-2,6.3564196E-2,-3.5929058E-2,3.16861E-2,-5.9385236E-2,-3.782086E-2,-2.595989E-3,8.106776E-2],"split_indices":[10,11,22,0,22,32,14,0,0,0,0,0,0,0,0],"split_type":[0,0,0,0,0,0,0,0,0,0,0,0,0,0,0],"sum_hessian":[2.0481047E4,1.5877781E4,4.603266E3,1.1252022E4,4.625759E3,4.4415127E3,1.6175331E2,1.0017722E4,1.2343004E3,4.4454478E3,1.8031088E2,3.1583047E3,1.2832079E3,1.4400383E2,1.7749487E1],"tree_param":{"num_deleted":"0","num_feature":"33","num_nodes":"15","size_leaf_vector":"1"}},{"base_weights":[-1.0629866E-3,-2.0157427E-1,5.2205706E-1,-4.137219E-1,1.9373217E-1,5.9570295E-1,3.2952595E-1,-3.96072E-2,-5.594774E-2,1.1946729E-2,3.79658E-2,6.1437946E-2,2.3118488E-3,3.773549E-2,-1.1511001E-2],"categories":[],"categories_nodes":[],"categories_segments":[],"categories_sizes":[],"default_left":[0,0,0,0,0,0,0,0,0,0,0,0,0,0,0],"id":12,"left_children":[1,3,5,7,9,11,13,-1,-1,-1,-1,-1,-1,-1,-1],"loss_changes":[2.1248218E3,1.2281931E3,7.9392944E1,2.429541E1,7.058188E1,4.339038E1,3.3118683E1,0E0,0E0,0E0,0E0,0E0,0E0,0E0,0E0],"parents":[2147483647,0,0,1,1,2,2,3,3,4,4,5,5,6,6],"right_children":[2,4,6,8,10,12,14,-1,-1,-1,-1,-1,-1,-1,-1],"split_conditions":[1E0,1E0,1.5816439E0,1E0,1.5816439E0,1E0,1E0,-3.96072E-2,-5.594774E-2,1.1946729E-2,3.79658E-2,6.1437946E-2,2.3118488E-3,3.773549E-2,-1.1511001E-2],"split_indices":[10,11,32,0,32,22,1,0,0,0,0,0,0,0,0],"split_type":[0,0,0,0,0,0,0,0,0,0,0,0,0,0,0],"sum_hessian":[2.0255334E4,1.464322E4,5.6121143E3,9.529183E3,5.1140376E3,4.0578381E3,1.554276E3,8.503224E3,1.0259592E3,3.655538E3,1.4584993E3,3.9295903E3,1.2824792E2,1.403459E3,1.5081705E2],"tree_param":{"num_deleted":"0","num_feature":"33","num_nodes":"15","size_leaf_vector":"1"}},{"base_weights":[7.823889E-3,5.6088284E-2,-1.4886375E-1,7.0778E-2,-7.144391E-2,-1.2377022E-1,-3.732825E-1,7.893748E-3,-1.532581E-2,-1.4489002E-2,8.664838E-3,-1.6763482E-2,-1.6483128E-3,-4.3572765E-2,-2.2230726E-2],"categories":[],"categories_nodes":[],"categories_segments":[],"categories_sizes":[],"default_left":[0,0,0,0,0,0,0,0,0,0,0,0,0,0,0],"id":13,"left_children":[1,3,5,7,9,11,13,-1,-1,-1,-1,-1,-1,-1,-1],"loss_changes":[1.558682E2,2.952451E1,2.728714E1,2.5842094E1,1.8915707E1,2.0549019E1,4.50045E0,0E0,0E0,0E0,0E0,0E0,0E0,0E0,0E0],"parents":[2147483647,0,0,1,1,2,2,3,3,4,4,5,5,6,6],"right_children":[2,4,6,8,10,12,14,-1,-1,-1,-1,-1,-1,-1,-1],"split_conditions":[1E0,1E0,1E0,1E0,1E0,1.5816439E0,1.5816439E0,7.893748E-3,-1.532581E-2,-1.4489002E-2,8.664838E-3,-1.6763482E-2,-1.6483128E-3,-4.3572765E-2,-2.2230726E-2],"split_indices":[10,1,9,22,11,32,32,0,0,0,0,0,0,0,0],"split_type":[0,0,0,0,0,0,0,0,0,0,0,0,0,0,0],"sum_hessian":[2.0608746E4,1.575606E4,4.852687E3,1.4129059E4,1.6270013E3,4.3660464E3,4.8664078E2,1.3633181E4,4.9587778E2,1.1109586E3,5.160428E2,3.0986096E3,1.2674365E3,3.429192E2,1.4372159E2],"tree_param":{"num_deleted":"0","num_feature":"33","num_nodes":"15","size_leaf_vector":"1"}},{"base_weights":[-3.4776323E-3,1.335424E-1,-4.9032646E-1,3.099615E-1,-3.1099346E-1,-5.145402E-1,9.763047E-2,2.7555456E-2,5.898403E-2,-3.5432972E-2,5.8054253E-3,-5.7631303E-2,-3.6652785E-2,-7.7199086E-4,8.273864E-2],"categories":[],"categories_nodes":[],"categories_segments":[],"categories_sizes":[],"default_left":[0,0,0,0,0,0,0,0,0,0,0,0,0,0,0],"id":14,"left_children":[1,3,5,7,9,11,13,-1,-1,-1,-1,-1,-1,-1,-1],"loss_changes":[1.357053E3,1.2451049E3,6.3658936E1,1.0928381E2,7.2162415E1,3.9025513E1,1.3657644E1,0E0,0E0,0E0,0E0,0E0,0E0,0E0,0E0],"parents":[2147483647,0,0,1,1,2,2,3,3,4,4,5,5,6,6],"right_children":[2,4,6,8,10,12,14,-1,-1,-1,-1,-1,-1,-1,-1],"split_conditions":[1E0,1E0,1E0,1E0,1E0,1.5816439E0,1E0,2.7555456E-2,5.898403E-2,-3.5432972E-2,5.8054253E-3,-5.7631303E-2,-3.6652785E-2,-7.7199086E-4,8.273864E-2],"split_indices":[10,11,22,1,1,32,14,0,0,0,0,0,0,0,0],"split_type":[0,0,0,0,0,0,0,0,0,0,0,0,0,0,0],"sum_hessian":[2.0341186E4,1.5874227E4,4.4669595E3,1.1364428E4,4.509799E3,4.2903936E3,1.7656564E2,1.0122058E4,1.2423706E3,4.0359126E3,4.7388632E2,3.0250134E3,1.2653804E3,1.5515613E2,2.1409515E1],"tree_param":{"num_deleted":"0","num_feature":"33","num_nodes":"15","size_leaf_vector":"1"}},{"base_weights":[-4.507865E-3,-1.9059758E-1,4.7151867E-1,-3.9414793E-1,1.7519064E-1,5.414034E-1,2.8774038E-1,-3.7605323E-2,-5.4615617E-2,2.134395E-2,-1.6839413E-2,5.726424E-2,2.5267197E-2,3.369407E-2,-1.8615114E-2],"categories":[],"categories_nodes":[],"categories_segments":[],"categories_sizes":[],"default_left":[0,0,0,0,0,0,0,0,0,0,0,0,0,0,0],"id":15,"left_children":[1,3,5,7,9,11,13,-1,-1,-1,-1,-1,-1,-1,-1],"loss_changes":[1.7874835E3,1.0802251E3,7.268152E1,2.5432129E1,6.820645E1,3.690515E1,3.6541626E1,0E0,0E0,0E0,0E0,0E0,0E0,0E0,0E0],"parents":[2147483647,0,0,1,1,2,2,3,3,4,4,5,5,6,6],"right_children":[2,4,6,8,10,12,14,-1,-1,-1,-1,-1,-1,-1,-1],"split_conditions":[1E0,1E0,1.5816439E0,1E0,1E0,1E0,1E0,-3.7605323E-2,-5.4615617E-2,2.134395E-2,-1.6839413E-2,5.726424E-2,2.5267197E-2,3.369407E-2,-1.8615114E-2],"split_indices":[10,11,32,0,0,0,1,0,0,0,0,0,0,0,0],"split_type":[0,0,0,0,0,0,0,0,0,0,0,0,0,0,0],"sum_hessian":[2.017647E4,1.4506245E4,5.6702256E3,9.319912E3,5.1863335E3,4.106655E3,1.5635706E3,8.33161E3,9.8830164E2,4.6671514E3,5.19182E2,3.7048313E3,4.0182346E2,1.4167681E3,1.4680246E2],"tree_param":{"num_deleted":"0","num_feature":"33","num_nodes":"15","size_leaf_vector":"1"}},{"base_weights":[6.2910193E-3,5.041292E-2,-1.3973112E-1,5.8127686E-2,-1.5741391E-1,-1.1611659E-1,-3.5376695E-1,7.1442695E-3,-5.730277E-3,3.5336048E-3,-4.7884118E-2,-1.5634408E-2,-2.0683801E-3,-4.2876072E-2,-1.7280703E-2],"categories":[],"categories_nodes":[],"categories_segments":[],"categories_sizes":[],"default_left":[0,0,0,0,0,0,0,0,0,0,0,0,0,0,0],"id":16,"left_children":[1,3,5,7,9,11,13,-1,-1,-1,-1,-1,-1,-1,-1],"loss_changes":[1.3256686E2,2.534407E1,2.4091324E1,2.342202E1,3.50736E1,1.6510815E1,6.35775E0,0E0,0E0,0E0,0E0,0E0,0E0,0E0,0E0],"parents":[2147483647,0,0,1,1,2,2,3,3,4,4,5,5,6,6],"right_children":[2,4,6,8,10,12,14,-1,-1,-1,-1,-1,-1,-1,-1],"split_conditions":[1E0,1E0,1E0,1E0,1E0,1.5816439E0,1.5816439E0,7.1442695E-3,-5.730277E-3,3.5336048E-3,-4.7884118E-2,-1.5634408E-2,-2.0683801E-3,-4.2876072E-2,-1.7280703E-2],"split_indices":[10,22,9,1,13,32,32,0,0,0,0,0,0,0,0],"split_type":[0,0,0,0,0,0,0,0,0,0,0,0,0,0,0],"sum_hessian":[2.057396E4,1.5800387E4,4.7735737E3,1.5235546E4,5.648402E2,4.300629E3,4.72945E2,1.366021E4,1.5753367E3,3.5365457E2,2.1118562E2,3.0249094E3,1.2757194E3,3.334052E2,1.395398E2],"tree_param":{"num_deleted":"0","num_feature":"33","num_nodes":"15","size_leaf_vector":"1"}},{"base_weights":[1.6787573E-3,1.2741943E-1,-4.6660072E-1,2.933275E-1,-3.024825E-1,-4.9017724E-1,5.9366673E-2,2.6224447E-2,5.417011E-2,-3.30037E-2,3.2396685E-2,-5.3360175E-2,-2.4747275E-2,-3.5254806E-3,7.984459E-2],"categories":[],"categories_nodes":[],"categories_segments":[],"categories_sizes":[],"default_left":[0,0,0,0,0,0,0,0,0,0,0,0,0,0,0],"id":17,"left_children":[1,3,5,7,9,11,13,-1,-1,-1,-1,-1,-1,-1,-1],"loss_changes":[1.1947802E3,1.140989E3,5.3291504E1,8.896661E1,7.700165E1,4.3195312E1,1.2977163E1,0E0,0E0,0E0,0E0,0E0,0E0,0E0,0E0],"parents":[2147483647,0,0,1,1,2,2,3,3,4,4,5,5,6,6],"right_children":[2,4,6,8,10,12,14,-1,-1,-1,-1,-1,-1,-1,-1],"split_conditions":[1E0,1E0,1E0,1E0,1E0,1E0,1E0,2.6224447E-2,5.417011E-2,-3.30037E-2,3.2396685E-2,-5.3360175E-2,-2.4747275E-2,-3.5254806E-3,7.984459E-2],"split_indices":[10,11,22,0,22,31,0,0,0,0,0,0,0,0,0],"split_type":[0,0,0,0,0,0,0,0,0,0,0,0,0,0,0],"sum_hessian":[2.028916E4,1.5994976E4,4.294184E3,1.1541275E4,4.4537E3,4.11002E3,1.8416376E2,1.0259404E4,1.2818712E3,4.2665103E3,1.8718994E2,3.4852444E3,6.247758E2,1.6410617E2,2.0057587E1],"tree_param":{"num_deleted":"0","num_feature":"33","num_nodes":"15","size_leaf_vector":"1"}},{"base_weights":[-5.3737997E-3,-1.7930499E-1,4.3265235E-1,-3.7343344E-1,1.5645315E-1,4.9532896E-1,2.7166688E-1,-3.9064184E-2,-2.1098426E-2,8.703361E-3,3.2717194E-2,5.241893E-2,2.2464104E-2,3.244972E-2,-1.8677747E-2],"categories":[],"categories_nodes":[],"categories_segments":[],"categories_sizes":[],"default_left":[0,0,0,0,0,0,0,0,0,0,0,0,0,0,0],"id":18,"left_children":[1,3,5,7,9,11,13,-1,-1,-1,-1,-1,-1,-1,-1],"loss_changes":[1.5154408E3,9.280742E2,5.6909424E1,2.5138184E1,6.1797035E1,3.166217E1,3.8485077E1,0E0,0E0,0E0,0E0,0E0,0E0,0E0,0E0],"parents":[2147483647,0,0,1,1,2,2,3,3,4,4,5,5,6,6],"right_children":[2,4,6,8,10,12,14,-1,-1,-1,-1,-1,-1,-1,-1],"split_conditions":[1E0,1E0,1.5816439E0,1E0,1.5816439E0,1E0,1E0,-3.9064184E-2,-2.1098426E-2,8.703361E-3,3.2717194E-2,5.241893E-2,2.2464104E-2,3.244972E-2,-1.8677747E-2],"split_indices":[10,11,32,4,32,0,2,0,0,0,0,0,0,0,0],"split_type":[0,0,0,0,0,0,0,0,0,0,0,0,0,0,0],"sum_hessian":[1.9889203E4,1.4236694E4,5.652508E3,9.02089E3,5.215805E3,4.067016E3,1.5854918E3,8.1555586E3,8.6533093E2,3.709086E3,1.5067191E3,3.6743281E3,3.9268805E2,1.421924E3,1.635678E2],"tree_param":{"num_deleted":"0","num_feature":"33","num_nodes":"15","size_leaf_vector":"1"}},{"base_weights":[1.3121709E-2,5.2965775E-2,-1.1969003E-1,5.951315E-2,-1.3052644E-1,-9.5106274E-2,-3.4193742E-1,7.093917E-3,-4.050846E-3,4.562988E-3,-4.182483E-2,-7.263634E-3,-2.7263207E-2,-4.1161295E-2,-1.8478192E-2],"categories":[],"categories_nodes":[],"categories_segments":[],"categories_sizes":[],"default_left":[0,0,0,0,0,0,0,0,0,0,0,0,0,0,0],"id":19,"left_children":[1,3,5,7,9,11,13,-1,-1,-1,-1,-1,-1,-1,-1],"loss_changes":[1.08921486E2,1.9029385E1,2.5920235E1,1.7474937E1,2.7682518E1,1.7046494E1,5.1000404E0,0E0,0E0,0E0,0E0,0E0,0E0,0E0,0E0],"parents":[2147483647,0,0,1,1,2,2,3,3,4,4,5,5,6,6],"right_children":[2,4,6,8,10,12,14,-1,-1,-1,-1,-1,-1,-1,-1],"split_conditions":[1E0,1E0,1E0,1E0,1E0,1E0,1.5816439E0,7.093917E-3,-4.050846E-3,4.562988E-3,-4.182483E-2,-7.263634E-3,-2.7263207E-2,-4.1161295E-2,-1.8478192E-2],"split_indices":[10,22,9,1,13,8,32,0,0,0,0,0,0,0,0],"split_type":[0,0,0,0,0,0,0,0,0,0,0,0,0,0,0],"sum_hessian":[2.0581027E4,1.5831973E4,4.749055E3,1.5287171E4,5.448019E2,4.277347E3,4.717081E2,1.3720136E4,1.5670352E3,3.3843692E2,2.0636497E2,3.798029E3,4.7931815E2,3.2569208E2,1.4601602E2],"tree_param":{"num_deleted":"0","num_feature":"33","num_nodes":"15","size_leaf_vector":"1"}},{"base_weights":[-1.7767434E-3,1.1624107E-1,-4.5648012E-1,2.6746038E-1,-2.8625527E-1,-4.776358E-1,2.9790455E-2,2.368976E-2,5.140847E-2,-3.136261E-2,3.2933228E-2,-5.4298308E-2,-3.278302E-2,-7.488893E-3,7.692542E-2],"categories":[],"categories_nodes":[],"categories_segments":[],"categories_sizes":[],"default_left":[0,0,0,0,0,0,0,0,0,0,0,0,0,0,0],"id":20,"left_children":[1,3,5,7,9,11,13,-1,-1,-1,-1,-1,-1,-1,-1],"loss_changes":[1.0795542E3,9.7220374E2,4.2660217E1,8.739221E1,7.360547E1,3.871216E1,1.3508908E1,0E0,0E0,0E0,0E0,0E0,0E0,0E0,0E0],"parents":[2147483647,0,0,1,1,2,2,3,3,4,4,5,5,6,6],"right_children":[2,4,6,8,10,12,14,-1,-1,-1,-1,-1,-1,-1,-1],"split_conditions":[1E0,1E0,1E0,1E0,1E0,1.5816439E0,1E0,2.368976E-2,5.140847E-2,-3.136261E-2,3.2933228E-2,-5.4298308E-2,-3.278302E-2,-7.488893E-3,7.692542E-2],"split_indices":[10,11,22,0,22,32,14,0,0,0,0,0,0,0,0],"split_type":[0,0,0,0,0,0,0,0,0,0,0,0,0,0,0],"sum_hessian":[2.0115264E4,1.5970802E4,4.1444614E3,1.1609433E4,4.3613696E3,3.971687E3,1.7277455E2,1.0331115E4,1.2783174E3,4.1761753E3,1.8519463E2,2.76356E3,1.2081271E3,1.5213663E2,2.063792E1],"tree_param":{"num_deleted":"0","num_feature":"33","num_nodes":"15","size_leaf_vector":"1"}},{"base_weights":[-4.9381657E-3,-1.6728388E-1,3.9376426E-1,-3.56448E-1,1.510586E-1,4.5427325E-1,2.3576325E-1,-3.384893E-2,-5.1267248E-2,1.8673249E-2,-1.7492164E-2,4.721063E-2,-6.3104928E-3,2.7990533E-2,-1.8617429E-2],"categories":[],"categories_nodes":[],"categories_segments":[],"categories_sizes":[],"default_left":[0,0,0,0,0,0,0,0,0,0,0,0,0,0,0],"id":21,"left_children":[1,3,5,7,9,11,13,-1,-1,-1,-1,-1,-1,-1,-1],"loss_changes":[1.2778187E3,8.4486755E2,5.450647E1,2.4516357E1,6.08496E1,3.8130066E1,2.9553345E1,0E0,0E0,0E0,0E0,0E0,0E0,0E0,0E0],"parents":[2147483647,0,0,1,1,2,2,3,3,4,4,5,5,6,6],"right_children":[2,4,6,8,10,12,14,-1,-1,-1,-1,-1,-1,-1,-1],"split_conditions":[1E0,1E0,1.5816439E0,1E0,1E0,1E0,1E0,-3.384893E-2,-5.1267248E-2,1.8673249E-2,-1.7492164E-2,4.721063E-2,-6.3104928E-3,2.7990533E-2,-1.8617429E-2],"split_indices":[10,11,32,6,0,22,1,0,0,0,0,0,0,0,0],"split_type":[0,0,0,0,0,0,0,0,0,0,0,0,0,0,0],"sum_hessian":[1.9739455E4,1.4028029E4,5.7114253E3,8.799254E3,5.2287754E3,4.128482E3,1.5829431E3,7.89487E3,9.043841E2,4.713389E3,5.153859E2,3.9910073E3,1.3747473E2,1.4333285E3,1.4961462E2],"tree_param":{"num_deleted":"0","num_feature":"33","num_nodes":"15","size_leaf_vector":"1"}},{"base_weights":[9.109639E-3,4.4467617E-2,-1.1082324E-1,5.128103E-2,-1.4539483E-1,-8.855235E-2,-3.1812596E-1,6.2108114E-3,-4.1857413E-3,4.336578E-3,-4.5672514E-2,-1.2112099E-2,-1.1457528E-3,-3.9579075E-2,-1.4455601E-2],"categories":[],"categories_nodes":[],"categories_segments":[],"categories_sizes":[],"default_left":[0,0,0,0,0,0,0,0,0,0,0,0,0,0,0],"id":22,"left_children":[1,3,5,7,9,11,13,-1,-1,-1,-1,-1,-1,-1,-1],"loss_changes":[8.689037E1,2.0478363E1,2.1511162E1,1.5408348E1,3.225174E1,1.0579945E1,6.038624E0,0E0,0E0,0E0,0E0,0E0,0E0,0E0,0E0],"parents":[2147483647,0,0,1,1,2,2,3,3,4,4,5,5,6,6],"right_children":[2,4,6,8,10,12,14,-1,-1,-1,-1,-1,-1,-1,-1],"split_conditions":[1E0,1E0,1E0,1E0,1E0,1.5816439E0,1.5816439E0,6.2108114E-3,-4.1857413E-3,4.336578E-3,-4.5672514E-2,-1.2112099E-2,-1.1457528E-3,-3.9579075E-2,-1.4455601E-2],"split_indices":[10,22,9,0,13,32,32,0,0,0,0,0,0,0,0],"split_type":[0,0,0,0,0,0,0,0,0,0,0,0,0,0,0],"sum_hessian":[2.048803E4,1.5823622E4,4.6644077E3,1.5276151E4,5.474708E2,4.213203E3,4.5120444E2,1.3685574E4,1.5905767E3,3.4136237E2,2.0610843E2,2.9615344E3,1.2516688E3,3.1083807E2,1.4036638E2],"tree_param":{"num_deleted":"0","num_feature":"33","num_nodes":"15","size_leaf_vector":"1"}},{"base_weights":[-4.0791314E-3,1.03443764E-1,-4.324411E-1,2.4329466E-1,-2.746096E-1,-4.56412E-1,1.070819E-1,2.141846E-2,4.7773063E-2,-3.017718E-2,3.3252258E-2,-5.2774906E-2,-2.9921407E-2,1.6475627E-3,8.815866E-2],"categories":[],"categories_nodes":[],"categories_segments":[],"categories_sizes":[],"default_left":[0,0,0,0,0,0,0,0,0,0,0,0,0,0,0],"id":23,"left_children":[1,3,5,7,9,11,13,-1,-1,-1,-1,-1,-1,-1,-1],"loss_changes":[9.172908E2,8.417598E2,5.1728516E1,7.920746E1,7.100043E1,4.2749146E1,1.1971254E1,0E0,0E0,0E0,0E0,0E0,0E0,0E0,0E0],"parents":[2147483647,0,0,1,1,2,2,3,3,4,4,5,5,6,6],"right_children":[2,4,6,8,10,12,14,-1,-1,-1,-1,-1,-1,-1,-1],"split_conditions":[1E0,1E0,1E0,1E0,1E0,1.5816439E0,1E0,2.141846E-2,4.7773063E-2,-3.017718E-2,3.3252258E-2,-5.2774906E-2,-2.9921407E-2,1.6475627E-3,8.815866E-2],"split_indices":[10,11,22,0,22,32,0,0,0,0,0,0,0,0,0],"split_type":[0,0,0,0,0,0,0,0,0,0,0,0,0,0,0],"sum_hessian":[1.9913709E4,1.591872E4,3.9949905E3,1.1620411E4,4.2983086E3,3.825192E3,1.6979848E2,1.0338577E4,1.2818339E3,4.114725E3,1.835838E2,2.6295393E3,1.1956527E3,1.5292917E2,1.6869312E1],"tree_param":{"num_deleted":"0","num_feature":"33","num_nodes":"15","size_leaf_vector":"1"}},{"base_weights":[-6.3768905E-3,-1.60567E-1,3.6576927E-1,-3.4224784E-1,1.3634565E-1,4.257002E-1,2.1339229E-1,-3.233692E-2,-4.998845E-2,1.7324893E-2,-1.9508578E-2,4.411078E-2,-2.6936305E-3,2.6191324E-2,-2.0678366E-2],"categories":[],"categories_nodes":[],"categories_segments":[],"categories_sizes":[],"default_left":[0,0,0,0,0,0,0,0,0,0,0,0,0,0,0],"id":24,"left_children":[1,3,5,7,9,11,13,-1,-1,-1,-1,-1,-1,-1,-1],"loss_changes":[1.1199966E3,7.4449384E2,5.2126038E1,2.531836E1,6.411877E1,2.8625366E1,3.300184E1,0E0,0E0,0E0,0E0,0E0,0E0,0E0,0E0],"parents":[2147483647,0,0,1,1,2,2,3,3,4,4,5,5,6,6],"right_children":[2,4,6,8,10,12,14,-1,-1,-1,-1,-1,-1,-1,-1],"split_conditions":[1E0,1E0,1.5816439E0,1E0,1E0,1E0,1E0,-3.233692E-2,-4.998845E-2,1.7324893E-2,-1.9508578E-2,4.411078E-2,-2.6936305E-3,2.6191324E-2,-2.0678366E-2],"split_indices":[10,11,32,1,1,22,2,0,0,0,0,0,0,0,0],"split_type":[0,0,0,0,0,0,0,0,0,0,0,0,0,0,0],"sum_hessian":[1.9516488E4,1.3799538E4,5.716949E3,8.560943E3,5.238594E3,4.101864E3,1.6150854E3,7.6480596E3,9.128841E2,4.714172E3,5.244227E2,3.9668586E3,1.3500493E2,1.4482245E3,1.6686101E2],"tree_param":{"num_deleted":"0","num_feature":"33","num_nodes":"15","size_leaf_vector":"1"}},{"base_weights":[1.3281982E-2,4.645458E-2,-9.96186E-2,5.8230836E-2,-5.5233017E-2,-1.2066481E-1,9.412611E-2,6.403985E-3,-1.0608944E-2,-1.2081201E-2,8.297649E-3,-1.6094929E-2,-3.0953868E-3,1.2127941E-2,-1.6327193E-2],"categories":[],"categories_nodes":[],"categories_segments":[],"categories_sizes":[],"default_left":[0,0,0,0,0,0,0,0,0,0,0,0,0,0,0],"id":25,"left_children":[1,3,5,7,9,11,13,-1,-1,-1,-1,-1,-1,-1,-1],"loss_changes":[7.670688E1,1.8959454E1,1.8977314E1,1.35491905E1,1.4905861E1,1.5159012E1,3.2090764E0,0E0,0E0,0E0,0E0,0E0,0E0,0E0,0E0],"parents":[2147483647,0,0,1,1,2,2,3,3,4,4,5,5,6,6],"right_children":[2,4,6,8,10,12,14,-1,-1,-1,-1,-1,-1,-1,-1],"split_conditions":[1E0,1E0,1E0,1E0,1E0,1.5816439E0,1E0,6.403985E-3,-1.0608944E-2,-1.2081201E-2,8.297649E-3,-1.6094929E-2,-3.0953868E-3,1.2127941E-2,-1.6327193E-2],"split_indices":[10,1,0,22,11,32,15,0,0,0,0,0,0,0,0],"split_type":[0,0,0,0,0,0,0,0,0,0,0,0,0,0,0],"sum_hessian":[2.0479117E4,1.5828852E4,4.650265E3,1.418638E4,1.6424717E3,4.194951E3,4.5531442E2,1.3702579E4,4.8380005E2,1.1140109E3,5.284608E2,2.8944233E3,1.3005277E3,4.1234442E2,4.2969982E1],"tree_param":{"num_deleted":"0","num_feature":"33","num_nodes":"15","size_leaf_vector":"1"}},{"base_weights":[-3.4342345E-4,9.946823E-2,-4.17886E-1,2.2910915E-1,-2.614194E-1,-4.4104782E-1,5.119963E-2,1.9950006E-2,4.6649057E-2,-3.0500311E-2,1.0876039E-2,-5.10692E-2,-2.9123172E-2,-3.714433E-3,7.1543805E-2],"categories":[],"categories_nodes":[],"categories_segments":[],"categories_sizes":[],"default_left":[0,0,0,0,0,0,0,0,0,0,0,0,0,0,0],"id":26,"left_children":[1,3,5,7,9,11,13,-1,-1,-1,-1,-1,-1,-1,-1],"loss_changes":[8.276105E2,7.499038E2,4.1648315E1,8.2788086E1,6.838016E1,3.794568E1,1.0657731E1,0E0,0E0,0E0,0E0,0E0,0E0,0E0,0E0],"parents":[2147483647,0,0,1,1,2,2,3,3,4,4,5,5,6,6],"right_children":[2,4,6,8,10,12,14,-1,-1,-1,-1,-1,-1,-1,-1],"split_conditions":[1E0,1E0,1E0,1E0,1E0,1.5816439E0,1E0,1.9950006E-2,4.6649057E-2,-3.0500311E-2,1.0876039E-2,-5.10692E-2,-2.9123172E-2,-3.714433E-3,7.1543805E-2],"split_indices":[10,11,22,1,1,32,14,0,0,0,0,0,0,0,0],"split_type":[0,0,0,0,0,0,0,0,0,0,0,0,0,0,0],"sum_hessian":[1.9856387E4,1.6026167E4,3.8302205E3,1.1790908E4,4.235259E3,3.6500532E3,1.8016724E2,1.0484939E4,1.3059689E3,3.789296E3,4.4596286E2,2.4900906E3,1.1599626E3,1.5985106E2,2.0316174E1],"tree_param":{"num_deleted":"0","num_feature":"33","num_nodes":"15","size_leaf_vector":"1"}},{"base_weights":[-1.0081525E-2,-1.5263258E-1,3.3325785E-1,-3.2583004E-1,1.188761E-1,3.0185765E-1,6.051715E-1,-3.4501348E-2,-1.4687371E-2,1.3747744E-2,-4.320687E-2,3.5780925E-2,1.5896982E-2,6.1694473E-2,2.9013386E-2],"categories":[],"categories_nodes":[],"categories_segments":[],"categories_sizes":[],"default_left":[0,0,0,0,0,0,0,0,0,0,0,0,0,0,0],"id":27,"left_children":[1,3,5,7,9,11,13,-1,-1,-1,-1,-1,-1,-1,-1],"loss_changes":[9.4272076E2,6.4006525E2,4.806598E1,2.8477356E1,5.439112E1,4.0460327E1,1.9871216E0,0E0,0E0,0E0,0E0,0E0,0E0,0E0,0E0],"parents":[2147483647,0,0,1,1,2,2,3,3,4,4,5,5,6,6],"right_children":[2,4,6,8,10,12,14,-1,-1,-1,-1,-1,-1,-1,-1],"split_conditions":[1E0,1E0,1E0,1E0,1E0,1.5816439E0,1E0,-3.4501348E-2,-1.4687371E-2,1.3747744E-2,-4.320687E-2,3.5780925E-2,1.5896982E-2,6.1694473E-2,2.9013386E-2],"split_indices":[10,11,9,9,22,32,22,0,0,0,0,0,0,0,0],"split_type":[0,0,0,0,0,0,0,0,0,0,0,0,0,0,0],"sum_hessian":[1.9259414E4,1.3609459E4,5.6499546E3,8.30893E3,5.3005293E3,5.0669414E3,5.8301324E2,7.503639E3,8.052902E2,5.1281406E3,1.7238898E2,3.6400696E3,1.4268717E3,5.6108655E2,2.1926672E1],"tree_param":{"num_deleted":"0","num_feature":"33","num_nodes":"15","size_leaf_vector":"1"}},{"base_weights":[1.2903421E-2,4.1042883E-2,-8.42646E-2,5.105152E-2,-4.528398E-2,-6.1837927E-2,-2.9950014E-1,6.256146E-3,-3.950159E-3,-1.350526E-2,1.6267948E-2,-8.221087E-3,1.0198529E-2,-3.592645E-2,-1.6617138E-2],"categories":[],"categories_nodes":[],"categories_segments":[],"categories_sizes":[],"default_left":[0,0,0,0,0,0,0,0,0,0,0,0,0,0,0],"id":28,"left_children":[1,3,5,7,9,11,13,-1,-1,-1,-1,-1,-1,-1,-1],"loss_changes":[5.581713E1,1.3679201E1,2.210989E1,1.4787308E1,3.0733854E1,1.3869115E1,3.385231E0,0E0,0E0,0E0,0E0,0E0,0E0,0E0,0E0],"parents":[2147483647,0,0,1,1,2,2,3,3,4,4,5,5,6,6],"right_children":[2,4,6,8,10,12,14,-1,-1,-1,-1,-1,-1,-1,-1],"split_conditions":[1E0,1E0,1E0,1E0,1E0,1E0,1.5816439E0,6.256146E-3,-3.950159E-3,-1.350526E-2,1.6267948E-2,-8.221087E-3,1.0198529E-2,-3.592645E-2,-1.6617138E-2],"split_indices":[10,0,9,1,11,0,32,0,0,0,0,0,0,0,0],"split_type":[0,0,0,0,0,0,0,0,0,0,0,0,0,0,0],"sum_hessian":[2.041175E4,1.5828468E4,4.5832817E3,1.4184357E4,1.6441096E3,4.151952E3,4.3132935E2,1.2585022E4,1.5993357E3,1.1486422E3,4.954674E2,3.6931704E3,4.5878198E2,2.966583E2,1.3467107E2],"tree_param":{"num_deleted":"0","num_feature":"33","num_nodes":"15","size_leaf_vector":"1"}},{"base_weights":[-2.9474432E-3,9.100435E-2,-4.0331316E-1,2.074023E-1,-2.4127305E-1,-4.266857E-1,6.617699E-2,1.794009E-2,4.3243602E-2,-2.6939634E-2,3.573005E-2,-4.7280483E-2,-1.927848E-2,-1.5435993E-3,6.4647704E-2],"categories":[],"categories_nodes":[],"categories_segments":[],"categories_sizes":[],"default_left":[0,0,0,0,0,0,0,0,0,0,0,0,0,0,0],"id":29,"left_children":[1,3,5,7,9,11,13,-1,-1,-1,-1,-1,-1,-1,-1],"loss_changes":[7.3694995E2,6.1377496E2,4.0889038E1,7.397562E1,6.940263E1,3.8174133E1,8.414069E0,0E0,0E0,0E0,0E0,0E0,0E0,0E0,0E0],"parents":[2147483647,0,0,1,1,2,2,3,3,4,4,5,5,6,6],"right_children":[2,4,6,8,10,12,14,-1,-1,-1,-1,-1,-1,-1,-1],"split_conditions":[1E0,1E0,1E0,1E0,1E0,1E0,1E0,1.794009E-2,4.3243602E-2,-2.6939634E-2,3.573005E-2,-4.7280483E-2,-1.927848E-2,-1.5435993E-3,6.4647704E-2],"split_indices":[10,11,22,0,22,31,0,0,0,0,0,0,0,0,0],"split_type":[0,0,0,0,0,0,0,0,0,0,0,0,0,0,0],"sum_hessian":[1.95899E4,1.5867198E4,3.7227021E3,1.1751116E4,4.116082E3,3.546251E3,1.7645116E2,1.0452311E4,1.2988059E3,3.9318965E3,1.8418575E2,2.9613328E3,5.849183E2,1.5554836E2,2.090281E1],"tree_param":{"num_deleted":"0","num_feature":"33","num_nodes":"15","size_leaf_vector":"1"}},{"base_weights":[-1.4968323E-2,-1.5095714E-1,3.093835E-1,-3.1649694E-1,1.03668846E-1,3.6695802E-1,1.6475545E-1,-2.9747456E-2,-4.8101034E-2,3.828135E-3,2.6703117E-2,3.81078E-2,-2.7883952E-3,2.0735558E-2,-2.1884082E-2],"categories":[],"categories_nodes":[],"categories_segments":[],"categories_sizes":[],"default_left":[0,0,0,0,0,0,0,0,0,0,0,0,0,0,0],"id":30,"left_children":[1,3,5,7,9,11,13,-1,-1,-1,-1,-1,-1,-1,-1],"loss_changes":[8.435229E2,5.6799194E2,4.6981445E1,2.5411804E1,5.6705303E1,2.253424E1,2.6361427E1,0E0,0E0,0E0,0E0,0E0,0E0,0E0,0E0],"parents":[2147483647,0,0,1,1,2,2,3,3,4,4,5,5,6,6],"right_children":[2,4,6,8,10,12,14,-1,-1,-1,-1,-1,-1,-1,-1],"split_conditions":[1E0,1E0,1.5816439E0,1E0,1.5816439E0,1E0,1E0,-2.9747456E-2,-4.8101034E-2,3.828135E-3,2.6703117E-2,3.81078E-2,-2.7883952E-3,2.0735558E-2,-2.1884082E-2],"split_indices":[10,11,32,6,32,22,1,0,0,0,0,0,0,0,0],"split_type":[0,0,0,0,0,0,0,0,0,0,0,0,0,0,0],"sum_hessian":[1.9121877E4,1.3473478E4,5.6483994E3,8.1649565E3,5.3085205E3,4.0389932E3,1.6094064E3,7.3212246E3,8.437321E2,3.7919766E3,1.5165441E3,3.899575E3,1.3941818E2,1.4489529E3,1.6045341E2],"tree_param":{"num_deleted":"0","num_feature":"33","num_nodes":"15","size_leaf_vector":"1"}},{"base_weights":[1.2506757E-2,3.8812824E-2,-8.000135E-2,4.516116E-2,-1.4364932E-1,-1.01647444E-1,1.09521374E-1,5.5044126E-3,-4.2282096E-3,3.2886013E-3,-4.3272953E-2,-1.2287831E-2,6.689926E-3,1.2901944E-2,-2.9707644E-2],"categories":[],"categories_nodes":[],"categories_segments":[],"categories_sizes":[],"default_left":[0,0,0,0,0,0,0,0,0,0,0,0,0,0,0],"id":31,"left_children":[1,3,5,7,9,11,13,-1,-1,-1,-1,-1,-1,-1,-1],"loss_changes":[4.9494587E1,1.8348942E1,1.8484875E1,1.3227659E1,2.7197617E1,1.447224E1,3.701634E0,0E0,0E0,0E0,0E0,0E0,0E0,0E0,0E0],"parents":[2147483647,0,0,1,1,2,2,3,3,4,4,5,5,6,6],"right_children":[2,4,6,8,10,12,14,-1,-1,-1,-1,-1,-1,-1,-1],"split_conditions":[1E0,1E0,1E0,1E0,1E0,1E0,1E0,5.5044126E-3,-4.2282096E-3,3.2886013E-3,-4.3272953E-2,-1.2287831E-2,6.689926E-3,1.2901944E-2,-2.9707644E-2],"split_indices":[10,22,0,1,13,1,24,0,0,0,0,0,0,0,0],"split_type":[0,0,0,0,0,0,0,0,0,0,0,0,0,0,0],"sum_hessian":[2.0336367E4,1.5834242E4,4.502124E3,1.5302578E4,5.316643E2,4.041045E3,4.6107922E2,1.3749015E4,1.5535634E3,3.306372E2,2.0102713E2,3.5892043E3,4.518405E2,4.4063177E2,2.0447458E1],"tree_param":{"num_deleted":"0","num_feature":"33","num_nodes":"15","size_leaf_vector":"1"}},{"base_weights":[-4.67634E-3,8.113301E-2,-3.876004E-1,1.905142E-1,-2.3875956E-1,-4.1018376E-1,6.523044E-2,1.6289627E-2,4.152037E-2,-2.814318E-2,1.1140697E-2,-4.8106145E-2,-2.651769E-2,-2.3434644E-3,7.1878694E-2],"categories":[],"categories_nodes":[],"categories_segments":[],"categories_sizes":[],"default_left":[0,0,0,0,0,0,0,0,0,0,0,0,0,0,0],"id":32,"left_children":[1,3,5,7,9,11,13,-1,-1,-1,-1,-1,-1,-1,-1],"loss_changes":[6.4033E2,5.57092E2,3.6509705E1,7.3554596E1,6.0651962E1,3.4798035E1,9.886971E0,0E0,0E0,0E0,0E0,0E0,0E0,0E0,0E0],"parents":[2147483647,0,0,1,1,2,2,3,3,4,4,5,5,6,6],"right_children":[2,4,6,8,10,12,14,-1,-1,-1,-1,-1,-1,-1,-1],"split_conditions":[1E0,1E0,1E0,1E0,1E0,1.5816439E0,1E0,1.6289627E-2,4.152037E-2,-2.814318E-2,1.1140697E-2,-4.8106145E-2,-2.651769E-2,-2.3434644E-3,7.1878694E-2],"split_indices":[10,11,22,1,1,32,14,0,0,0,0,0,0,0,0],"split_type":[0,0,0,0,0,0,0,0,0,0,0,0,0,0,0],"sum_hessian":[1.9485566E4,1.5919057E4,3.566509E3,1.18631E4,4.0559575E3,3.3971804E3,1.6932838E2,1.0566083E4,1.2970161E3,3.6155527E3,4.404047E2,2.280286E3,1.1168948E3,1.4994954E2,1.937884E1],"tree_param":{"num_deleted":"0","num_feature":"33","num_nodes":"15","size_leaf_vector":"1"}},{"base_weights":[-1.5116576E-2,-1.3934776E-1,2.8115278E-1,-3.013821E-1,1.01564735E-1,2.518904E-1,5.359067E-1,-3.204346E-2,-1.2336901E-2,1.3730347E-2,-2.3375092E-2,3.044099E-2,1.2055034E-2,5.5029165E-2,9.122429E-3],"categories":[],"categories_nodes":[],"categories_segments":[],"categories_sizes":[],"default_left":[0,0,0,0,0,0,0,0,0,0,0,0,0,0,0],"id":33,"left_children":[1,3,5,7,9,11,13,-1,-1,-1,-1,-1,-1,-1,-1],"loss_changes":[6.9257874E2,5.175607E2,4.1307648E1,2.6844849E1,6.392941E1,3.437268E1,3.6080322E0,0E0,0E0,0E0,0E0,0E0,0E0,0E0,0E0],"parents":[2147483647,0,0,1,1,2,2,3,3,4,4,5,5,6,6],"right_children":[2,4,6,8,10,12,14,-1,-1,-1,-1,-1,-1,-1,-1],"split_conditions":[1E0,1E0,1E0,1E0,1E0,1.5816439E0,1E0,-3.204346E-2,-1.2336901E-2,1.3730347E-2,-2.3375092E-2,3.044099E-2,1.2055034E-2,5.5029165E-2,9.122429E-3],"split_indices":[10,11,9,4,1,32,22,0,0,0,0,0,0,0,0],"split_type":[0,0,0,0,0,0,0,0,0,0,0,0,0,0,0],"sum_hessian":[1.8814996E4,1.3256733E4,5.5582627E3,7.925741E3,5.3309927E3,4.987375E3,5.708877E2,7.15875E3,7.669914E2,4.8180625E3,5.129301E2,3.5617893E3,1.4255857E3,5.527687E2,1.8118996E1],"tree_param":{"num_deleted":"0","num_feature":"33","num_nodes":"15","size_leaf_vector":"1"}},{"base_weights":[1.5600682E-2,3.9922677E-2,-7.0192575E-2,4.4651292E-2,-9.602536E-2,-4.735786E-2,-2.955828E-1,5.21737E-3,-2.2980543E-3,6.1354944E-3,-3.8723566E-2,-3.1715662E-3,-2.1032363E-2,-3.2944348E-2,-1.0256815E-2],"categories":[],"categories_nodes":[],"categories_segments":[],"categories_sizes":[],"default_left":[0,0,0,0,0,0,0,0,0,0,0,0,0,0,0],"id":34,"left_children":[1,3,5,7,9,11,13,-1,-1,-1,-1,-1,-1,-1,-1],"loss_changes":[4.2435688E1,1.0189739E1,2.310493E1,7.791462E0,2.4446882E1,1.039367E1,2.6656456E0,0E0,0E0,0E0,0E0,0E0,0E0,0E0,0E0],"parents":[2147483647,0,0,1,1,2,2,3,3,4,4,5,5,6,6],"right_children":[2,4,6,8,10,12,14,-1,-1,-1,-1,-1,-1,-1,-1],"split_conditions":[1E0,1E0,1E0,1E0,1E0,1E0,1E0,5.21737E-3,-2.2980543E-3,6.1354944E-3,-3.8723566E-2,-3.1715662E-3,-2.1032363E-2,-3.2944348E-2,-1.0256815E-2],"split_indices":[10,22,9,1,13,14,30,0,0,0,0,0,0,0,0],"split_type":[0,0,0,0,0,0,0,0,0,0,0,0,0,0,0],"sum_hessian":[2.0334285E4,1.58433125E4,4.4909717E3,1.5311415E4,5.318981E2,4.0789368E3,4.1203473E2,1.3779056E4,1.532359E3,3.4580316E2,1.8609491E2,3.7228E3,3.5613675E2,3.4993805E2,6.2096664E1],"tree_param":{"num_deleted":"0","num_feature":"33","num_nodes":"15","size_leaf_vector":"1"}},{"base_weights":[-7.0127333E-3,7.314641E-2,-3.7404954E-1,1.7278895E-1,-2.221648E-1,-3.992121E-1,9.350895E-2,1.4347786E-2,4.2601537E-2,-2.658759E-2,1.2247624E-2,-4.715475E-2,-2.560146E-2,6.967864E-5,6.887965E-2],"categories":[],"categories_nodes":[],"categories_segments":[],"categories_sizes":[],"default_left":[0,0,0,0,0,0,0,0,0,0,0,0,0,0,0],"id":35,"left_children":[1,3,5,7,9,11,13,-1,-1,-1,-1,-1,-1,-1,-1],"loss_changes":[5.675444E2,4.6592004E2,4.0717438E1,8.781E1,6.021309E1,3.3868286E1,9.800411E0,0E0,0E0,0E0,0E0,0E0,0E0,0E0,0E0],"parents":[2147483647,0,0,1,1,2,2,3,3,4,4,5,5,6,6],"right_children":[2,4,6,8,10,12,14,-1,-1,-1,-1,-1,-1,-1,-1],"split_conditions":[1E0,1E0,1E0,1E0,1E0,1.5816439E0,1E0,1.4347786E-2,4.2601537E-2,-2.658759E-2,1.2247624E-2,-4.715475E-2,-2.560146E-2,6.967864E-5,6.887965E-2],"split_indices":[10,11,22,6,1,32,14,0,0,0,0,0,0,0,0],"split_type":[0,0,0,0,0,0,0,0,0,0,0,0,0,0,0],"sum_hessian":[1.928829E4,1.5831552E4,3.456737E3,1.1837733E4,3.9938184E3,3.2803452E3,1.7639194E2,1.0611063E4,1.2266697E3,3.5444954E3,4.4932294E2,2.177899E3,1.1024463E3,1.5346599E2,2.292594E1],"tree_param":{"num_deleted":"0","num_feature":"33","num_nodes":"15","size_leaf_vector":"1"}},{"base_weights":[-1.1107672E-2,-1.3119465E-1,2.698404E-1,-2.8661242E-1,9.536303E-2,2.4295223E-1,5.151446E-1,-2.6663939E-2,-4.6315987E-2,5.168447E-3,3.5260987E-2,2.5771717E-2,-1.937034E-2,4.9890306E-2,6.942913E-2],"categories":[],"categories_nodes":[],"categories_segments":[],"categories_sizes":[],"default_left":[0,0,0,0,0,0,0,0,0,0,0,0,0,0,0],"id":36,"left_children":[1,3,5,7,9,11,13,-1,-1,-1,-1,-1,-1,-1,-1],"loss_changes":[6.287788E2,4.597512E2,3.668402E1,2.7183899E1,5.9680157E1,3.2487946E1,1.2550507E0,0E0,0E0,0E0,0E0,0E0,0E0,0E0,0E0],"parents":[2147483647,0,0,1,1,2,2,3,3,4,4,5,5,6,6],"right_children":[2,4,6,8,10,12,14,-1,-1,-1,-1,-1,-1,-1,-1],"split_conditions":[1E0,1E0,1E0,1E0,1E0,1E0,1E0,-2.6663939E-2,-4.6315987E-2,5.168447E-3,3.5260987E-2,2.5771717E-2,-1.937034E-2,4.9890306E-2,6.942913E-2],"split_indices":[10,11,9,6,31,22,16,0,0,0,0,0,0,0,0],"split_type":[0,0,0,0,0,0,0,0,0,0,0,0,0,0,0],"sum_hessian":[1.863495E4,1.3055225E4,5.579724E3,7.7431714E3,5.3120537E3,5.030332E3,5.49392E2,6.9584624E3,7.84709E2,4.542049E3,7.700046E2,4.8661978E3,1.6413449E2,5.0719443E2,4.2197598E1],"tree_param":{"num_deleted":"0","num_feature":"33","num_nodes":"15","size_leaf_vector":"1"}},{"base_weights":[1.6327236E-2,3.7276965E-2,-5.8149E-2,4.285433E-2,-1.21876076E-1,-4.175295E-2,-2.2381416E-1,5.0812582E-3,-2.911938E-3,3.8057603E-3,-4.0232353E-2,-2.0706663E-3,-1.7211895E-2,-2.5380552E-2,-6.346115E-4],"categories":[],"categories_nodes":[],"categories_segments":[],"categories_sizes":[],"default_left":[0,0,0,0,0,0,0,0,0,0,0,0,0,0,0],"id":37,"left_children":[1,3,5,7,9,11,13,-1,-1,-1,-1,-1,-1,-1,-1],"loss_changes":[3.175144E1,1.4102972E1,1.212616E1,8.790871E0,2.4145607E1,1.1154076E1,2.6211166E0,0E0,0E0,0E0,0E0,0E0,0E0,0E0,0E0],"parents":[2147483647,0,0,1,1,2,2,3,3,4,4,5,5,6,6],"right_children":[2,4,6,8,10,12,14,-1,-1,-1,-1,-1,-1,-1,-1],"split_conditions":[1E0,1E0,1E0,1E0,1E0,1E0,1E0,5.0812582E-3,-2.911938E-3,3.8057603E-3,-4.0232353E-2,-2.0706663E-3,-1.7211895E-2,-2.5380552E-2,-6.346115E-4],"split_indices":[10,22,9,1,13,26,25,0,0,0,0,0,0,0,0],"split_type":[0,0,0,0,0,0,0,0,0,0,0,0,0,0,0],"sum_hessian":[2.0347746E4,1.588101E4,4.4667354E3,1.5344023E4,5.3698627E2,4.0656099E3,4.0112552E2,1.3816595E4,1.5274286E3,3.425188E2,1.9446745E2,3.5014885E3,5.641215E2,3.5236343E2,4.8762085E1],"tree_param":{"num_deleted":"0","num_feature":"33","num_nodes":"15","size_leaf_vector":"1"}},{"base_weights":[-3.1312665E-3,7.229236E-2,-3.6302078E-1,1.6500993E-1,-2.0836785E-1,-3.8648295E-1,6.43374E-2,1.9033967E-2,-7.5729536E-3,-2.3490077E-2,3.321911E-2,-4.610407E-2,-2.4162134E-2,1.36375725E-2,-5.5272706E-2],"categories":[],"categories_nodes":[],"categories_segments":[],"categories_sizes":[],"default_left":[0,0,0,0,0,0,0,0,0,0,0,0,0,0,0],"id":38,"left_children":[1,3,5,7,9,11,13,-1,-1,-1,-1,-1,-1,-1,-1],"loss_changes":[5.2126764E2,4.1317267E2,3.338669E1,7.278955E1,5.6629333E1,3.395636E1,7.8109636E0,0E0,0E0,0E0,0E0,0E0,0E0,0E0,0E0],"parents":[2147483647,0,0,1,1,2,2,3,3,4,4,5,5,6,6],"right_children":[2,4,6,8,10,12,14,-1,-1,-1,-1,-1,-1,-1,-1],"split_conditions":[1E0,1E0,1E0,1E0,1E0,1.5816439E0,1E0,1.9033967E-2,-7.5729536E-3,-2.3490077E-2,3.321911E-2,-4.610407E-2,-2.4162134E-2,1.36375725E-2,-5.5272706E-2],"split_indices":[10,11,22,9,22,32,6,0,0,0,0,0,0,0,0],"split_type":[0,0,0,0,0,0,0,0,0,0,0,0,0,0,0],"sum_hessian":[1.9201701E4,1.5875419E4,3.326282E3,1.1933527E4,3.9418914E3,3.153262E3,1.7301994E2,1.0797647E4,1.1358802E3,3.7579983E3,1.8389291E2,2.0803567E3,1.0729055E3,1.5563011E2,1.7389826E1],"tree_param":{"num_deleted":"0","num_feature":"33","num_nodes":"15","size_leaf_vector":"1"}},{"base_weights":[-1.2448234E-2,-1.2348285E-1,2.4690789E-1,-2.6585057E-1,7.916037E-2,2.7318072E-1,2.3251632E-3,-2.4592895E-2,-4.4406246E-2,4.4886447E-3,3.770175E-2,3.0300623E-2,3.0759044E-3,8.653144E-3,-2.067293E-2],"categories":[],"categories_nodes":[],"categories_segments":[],"categories_sizes":[],"default_left":[0,0,0,0,0,0,0,0,0,0,0,0,0,0,0],"id":39,"left_children":[1,3,5,7,9,11,13,-1,-1,-1,-1,-1,-1,-1,-1],"loss_changes":[5.3102936E2,3.725338E2,3.552118E1,2.6816772E1,5.438455E1,3.608261E1,9.474861E0,0E0,0E0,0E0,0E0,0E0,0E0,0E0,0E0],"parents":[2147483647,0,0,1,1,2,2,3,3,4,4,5,5,6,6],"right_children":[2,4,6,8,10,12,14,-1,-1,-1,-1,-1,-1,-1,-1],"split_conditions":[1E0,1E0,1E0,1E0,1E0,1E0,1.5816439E0,-2.4592895E-2,-4.4406246E-2,4.4886447E-3,3.770175E-2,3.0300623E-2,3.0759044E-3,8.653144E-3,-2.067293E-2],"split_indices":[10,11,1,0,9,0,32,0,0,0,0,0,0,0,0],"split_type":[0,0,0,0,0,0,0,0,0,0,0,0,0,0,0],"sum_hessian":[1.8438055E4,1.2911118E4,5.5269375E3,7.5832007E3,5.327917E3,4.9907227E3,5.36215E2,6.822877E3,7.6032385E2,4.77914E3,5.4877704E2,4.443751E3,5.4697156E2,3.8266516E2,1.5354988E2],"tree_param":{"num_deleted":"0","num_feature":"33","num_nodes":"15","size_leaf_vector":"1"}},{"base_weights":[1.8234128E-2,3.90637E-2,-5.6806542E-2,4.5020416E-2,-1.3105983E-1,-7.566988E-2,1.0949374E-1,5.323251E-3,-2.944956E-3,4.366458E-3,-4.5003604E-2,-6.0835853E-3,-2.1322323E-2,7.079301E-3,3.474952E-2],"categories":[],"categories_nodes":[],"categories_segments":[],"categories_sizes":[],"default_left":[0,0,0,0,0,0,0,0,0,0,0,0,0,0,0],"id":40,"left_children":[1,3,5,7,9,11,13,-1,-1,-1,-1,-1,-1,-1,-1],"loss_changes":[3.1710526E1,1.6097399E1,1.3835801E1,9.384417E0,2.997263E1,8.066166E0,4.115294E0,0E0,0E0,0E0,0E0,0E0,0E0,0E0,0E0],"parents":[2147483647,0,0,1,1,2,2,3,3,4,4,5,5,6,6],"right_children":[2,4,6,8,10,12,14,-1,-1,-1,-1,-1,-1,-1,-1],"split_conditions":[1E0,1E0,1E0,1E0,1E0,1E0,1E0,5.323251E-3,-2.944956E-3,4.366458E-3,-4.5003604E-2,-6.0835853E-3,-2.1322323E-2,7.079301E-3,3.474952E-2],"split_indices":[10,22,0,1,13,9,25,0,0,0,0,0,0,0,0],"split_type":[0,0,0,0,0,0,0,0,0,0,0,0,0,0,0],"sum_hessian":[2.028498E4,1.587807E4,4.406909E3,1.5341633E4,5.3643774E2,3.9584497E3,4.4845947E2,1.3818139E4,1.523494E3,3.47146E2,1.8929173E2,3.5744194E3,3.840302E2,3.8685202E2,6.160746E1],"tree_param":{"num_deleted":"0","num_feature":"33","num_nodes":"15","size_leaf_vector":"1"}},{"base_weights":[-4.280026E-3,6.468265E-2,-3.4661475E-1,1.5073006E-1,-2.0229375E-1,-4.2192376E-1,-1.9958296E-1,1.2480468E-2,3.721101E-2,-2.2908233E-2,3.5018843E-2,-4.4928107E-2,-6.255886E-5,-2.710378E-2,3.768789E-2],"categories":[],"categories_nodes":[],"categories_segments":[],"categories_sizes":[],"default_left":[0,0,0,0,0,0,0,0,0,0,0,0,0,0,0],"id":41,"left_children":[1,3,5,7,9,11,13,-1,-1,-1,-1,-1,-1,-1,-1],"loss_changes":[4.4966925E2,3.6422662E2,3.527835E1,6.876767E1,5.7277374E1,2.4330566E1,4.4737305E1,0E0,0E0,0E0,0E0,0E0,0E0,0E0,0E0],"parents":[2147483647,0,0,1,1,2,2,3,3,4,4,5,5,6,6],"right_children":[2,4,6,8,10,12,14,-1,-1,-1,-1,-1,-1,-1,-1],"split_conditions":[1E0,1E0,1.5816439E0,1E0,1E0,1E0,1E0,1.2480468E-2,3.721101E-2,-2.2908233E-2,3.5018843E-2,-4.4928107E-2,-6.255886E-5,-2.710378E-2,3.768789E-2],"split_indices":[10,11,32,6,22,22,2,0,0,0,0,0,0,0,0],"split_type":[0,0,0,0,0,0,0,0,0,0,0,0,0,0,0],"sum_hessian":[1.9045121E4,1.58524795E4,3.1926406E3,1.1988863E4,3.8636165E3,2.1100256E3,1.082615E3,1.0733453E4,1.25541E3,3.6855005E3,1.7811601E2,1.9813018E3,1.2872379E2,9.6369135E2,1.18923676E2],"tree_param":{"num_deleted":"0","num_feature":"33","num_nodes":"15","size_leaf_vector":"1"}},{"base_weights":[-1.2237037E-2,-1.1426304E-1,2.2222798E-1,-2.574479E-1,8.410683E-2,1.9465211E-1,4.7330022E-1,-2.3707984E-2,-4.4296905E-2,1.1603113E-2,-2.1073971E-2,2.442038E-2,7.476259E-3,4.8975535E-2,4.360042E-3],"categories":[],"categories_nodes":[],"categories_segments":[],"categories_sizes":[],"default_left":[0,0,0,0,0,0,0,0,0,0,0,0,0,0,0],"id":42,"left_children":[1,3,5,7,9,11,13,-1,-1,-1,-1,-1,-1,-1,-1],"loss_changes":[4.380669E2,3.6245343E2,3.8350983E1,2.7899353E1,5.0382473E1,2.9713455E1,3.8590393E0,0E0,0E0,0E0,0E0,0E0,0E0,0E0,0E0],"parents":[2147483647,0,0,1,1,2,2,3,3,4,4,5,5,6,6],"right_children":[2,4,6,8,10,12,14,-1,-1,-1,-1,-1,-1,-1,-1],"split_conditions":[1E0,1E0,1E0,1E0,1E0,1.5816439E0,1E0,-2.3707984E-2,-4.4296905E-2,1.1603113E-2,-2.1073971E-2,2.442038E-2,7.476259E-3,4.8975535E-2,4.360042E-3],"split_indices":[10,11,9,0,0,32,22,0,0,0,0,0,0,0,0],"split_type":[0,0,0,0,0,0,0,0,0,0,0,0,0,0,0],"sum_hessian":[1.8310602E4,1.275908E4,5.5515225E3,7.4101094E3,5.34897E3,5.003726E3,5.477962E2,6.6791E3,7.310093E2,4.826943E3,5.220273E2,3.5396936E3,1.4640325E3,5.2745776E2,2.0338467E1],"tree_param":{"num_deleted":"0","num_feature":"33","num_nodes":"15","size_leaf_vector":"1"}},{"base_weights":[1.690244E-2,3.2863375E-2,-4.100383E-2,3.8006656E-2,-1.1458222E-1,-2.383341E-2,-2.1908438E-1,4.5960615E-3,-3.3965749E-3,1.8452486E-3,-3.721739E-2,-4.078583E-3,1.0596168E-2,-2.7686203E-2,-9.883998E-3],"categories":[],"categories_nodes":[],"categories_segments":[],"categories_sizes":[],"default_left":[0,0,0,0,0,0,0,0,0,0,0,0,0,0,0],"id":43,"left_children":[1,3,5,7,9,11,13,-1,-1,-1,-1,-1,-1,-1,-1],"loss_changes":[1.8715477E1,1.2042143E1,1.3374096E1,8.782768E0,1.8350739E1,8.787905E0,2.645094E0,0E0,0E0,0E0,0E0,0E0,0E0,0E0,0E0],"parents":[2147483647,0,0,1,1,2,2,3,3,4,4,5,5,6,6],"right_children":[2,4,6,8,10,12,14,-1,-1,-1,-1,-1,-1,-1,-1],"split_conditions":[1E0,1E0,1E0,1E0,1E0,1E0,1.5816439E0,4.5960615E-3,-3.3965749E-3,1.8452486E-3,-3.721739E-2,-4.078583E-3,1.0596168E-2,-2.7686203E-2,-9.883998E-3],"split_indices":[10,22,9,1,13,0,32,0,0,0,0,0,0,0,0],"split_type":[0,0,0,0,0,0,0,0,0,0,0,0,0,0,0],"sum_hessian":[2.0247164E4,1.5872575E4,4.374589E3,1.5338278E4,5.3429626E2,3.9909202E3,3.8366833E2,1.3812199E4,1.5260795E3,3.5294443E2,1.8135182E2,3.5304917E3,4.604285E2,2.5826773E2,1.254006E2],"tree_param":{"num_deleted":"0","num_feature":"33","num_nodes":"15","size_leaf_vector":"1"}},{"base_weights":[-3.8357428E-3,5.892772E-2,-3.2439038E-1,1.3779402E-1,-1.890689E-1,-4.004885E-1,-1.8045048E-1,1.11300275E-2,3.4968175E-2,-2.3422683E-2,1.4612975E-2,-4.3124296E-2,3.608205E-3,-2.4595985E-2,3.4119077E-2],"categories":[],"categories_nodes":[],"categories_segments":[],"categories_sizes":[],"default_left":[0,0,0,0,0,0,0,0,0,0,0,0,0,0,0],"id":44,"left_children":[1,3,5,7,9,11,13,-1,-1,-1,-1,-1,-1,-1,-1],"loss_changes":[3.804406E2,3.0931137E2,3.3841827E1,6.731645E1,5.7794876E1,2.7198425E1,3.6737316E1,0E0,0E0,0E0,0E0,0E0,0E0,0E0,0E0],"parents":[2147483647,0,0,1,1,2,2,3,3,4,4,5,5,6,6],"right_children":[2,4,6,8,10,12,14,-1,-1,-1,-1,-1,-1,-1,-1],"split_conditions":[1E0,1E0,1.5816439E0,1E0,1E0,1E0,1E0,1.11300275E-2,3.4968175E-2,-2.3422683E-2,1.4612975E-2,-4.3124296E-2,3.608205E-3,-2.4595985E-2,3.4119077E-2],"split_indices":[10,11,32,0,1,22,2,0,0,0,0,0,0,0,0],"split_type":[0,0,0,0,0,0,0,0,0,0,0,0,0,0,0],"sum_hessian":[1.8907457E4,1.5812283E4,3.0951729E3,1.1997394E4,3.8148904E3,2.02357E3,1.0716028E3,1.0665357E4,1.3320363E3,3.362232E3,4.5265833E2,1.8904111E3,1.3315878E2,9.5251184E2,1.1909097E2],"tree_param":{"num_deleted":"0","num_feature":"33","num_nodes":"15","size_leaf_vector":"1"}},{"base_weights":[-1.3095927E-2,-1.08529076E-1,2.0732011E-1,-2.4340215E-1,7.242377E-2,2.3162758E-1,-1.092399E-2,-2.2137566E-2,-4.2748928E-2,1.0477939E-2,-2.1915006E-2,2.5979498E-2,3.7393064E-4,-6.4542727E-3,2.9360412E-2],"categories":[],"categories_nodes":[],"categories_segments":[],"categories_sizes":[],"default_left":[0,0,0,0,0,0,0,0,0,0,0,0,0,0,0],"id":45,"left_children":[1,3,5,7,9,11,13,-1,-1,-1,-1,-1,-1,-1,-1],"loss_changes":[3.7851547E2,3.0649063E2,2.8845825E1,2.9079742E1,5.0621696E1,3.140216E1,8.931509E0,0E0,0E0,0E0,0E0,0E0,0E0,0E0,0E0],"parents":[2147483647,0,0,1,1,2,2,3,3,4,4,5,5,6,6],"right_children":[2,4,6,8,10,12,14,-1,-1,-1,-1,-1,-1,-1,-1],"split_conditions":[1E0,1E0,1E0,1E0,1E0,1E0,1E0,-2.2137566E-2,-4.2748928E-2,1.0477939E-2,-2.1915006E-2,2.5979498E-2,3.7393064E-4,-6.4542727E-3,2.9360412E-2],"split_indices":[10,11,1,1,0,0,26,0,0,0,0,0,0,0,0],"split_type":[0,0,0,0,0,0,0,0,0,0,0,0,0,0,0],"sum_hessian":[1.799249E4,1.2556452E4,5.4360376E3,7.1940366E3,5.362415E3,4.891206E3,5.448313E2,6.4272075E3,7.668293E2,4.827368E3,5.3504694E2,4.353025E3,5.3818146E2,4.639338E2,8.089749E1],"tree_param":{"num_deleted":"0","num_feature":"33","num_nodes":"15","size_leaf_vector":"1"}},{"base_weights":[1.6386677E-2,3.228151E-2,-4.237695E-2,4.0899284E-2,-4.2608406E-2,-2.7832175E-2,-1.9916427E-1,4.8934654E-3,-2.2841603E-3,-1.1248964E-2,1.1431521E-2,-1.3065379E-3,-1.8229792E-2,-2.5723642E-2,-7.779894E-3],"categories":[],"categories_nodes":[],"categories_segments":[],"categories_sizes":[],"default_left":[0,0,0,0,0,0,0,0,0,0,0,0,0,0,0],"id":46,"left_children":[1,3,5,7,9,11,13,-1,-1,-1,-1,-1,-1,-1,-1],"loss_changes":[1.8877472E1,1.0267975E1,9.807108E0,7.307953E0,1.801979E1,8.98198E0,2.5533829E0,0E0,0E0,0E0,0E0,0E0,0E0,0E0,0E0],"parents":[2147483647,0,0,1,1,2,2,3,3,4,4,5,5,6,6],"right_children":[2,4,6,8,10,12,14,-1,-1,-1,-1,-1,-1,-1,-1],"split_conditions":[1E0,1E0,1E0,1E0,1E0,1E0,1.5816439E0,4.8934654E-3,-2.2841603E-3,-1.1248964E-2,1.1431521E-2,-1.3065379E-3,-1.8229792E-2,-2.5723642E-2,-7.779894E-3],"split_indices":[10,0,9,1,11,14,32,0,0,0,0,0,0,0,0],"split_type":[0,0,0,0,0,0,0,0,0,0,0,0,0,0,0],"sum_hessian":[2.0208137E4,1.5906166E4,4.3019707E3,1.42651E4,1.6410668E3,3.937844E3,3.6412665E2,1.2668324E4,1.5967751E3,1.1356307E3,5.0543607E2,3.5952278E3,3.4261618E2,2.4552548E2,1.1860116E2],"tree_param":{"num_deleted":"0","num_feature":"33","num_nodes":"15","size_leaf_vector":"1"}},{"base_weights":[-7.824288E-4,6.1173335E-2,-3.236559E-1,1.322112E-1,-1.6562846E-1,-4.008837E-1,-1.8061933E-1,1.0663128E-2,3.3665966E-2,-2.0933693E-2,1.5448235E-2,-4.3190137E-2,2.3625526E-3,-2.4836833E-2,3.6327984E-2],"categories":[],"categories_nodes":[],"categories_segments":[],"categories_sizes":[],"default_left":[0,0,0,0,0,0,0,0,0,0,0,0,0,0,0],"id":47,"left_children":[1,3,5,7,9,11,13,-1,-1,-1,-1,-1,-1,-1,-1],"loss_changes":[3.7474384E2,2.5325555E2,3.3243744E1,6.2560867E1,5.2490097E1,2.578833E1,3.912319E1,0E0,0E0,0E0,0E0,0E0,0E0,0E0,0E0],"parents":[2147483647,0,0,1,1,2,2,3,3,4,4,5,5,6,6],"right_children":[2,4,6,8,10,12,14,-1,-1,-1,-1,-1,-1,-1,-1],"split_conditions":[1E0,1E0,1.5816439E0,1E0,1E0,1E0,1E0,1.0663128E-2,3.3665966E-2,-2.0933693E-2,1.5448235E-2,-4.3190137E-2,2.3625526E-3,-2.4836833E-2,3.6327984E-2],"split_indices":[10,11,32,0,1,22,1,0,0,0,0,0,0,0,0],"split_type":[0,0,0,0,0,0,0,0,0,0,0,0,0,0,0],"sum_hessian":[1.8731576E4,1.5716557E4,3.0150186E3,1.1968312E4,3.7482449E3,1.9567399E3,1.0582788E3,1.0638749E4,1.329563E3,3.2982432E3,4.5000168E2,1.8234857E3,1.3325421E2,9.4154205E2,1.1673669E2],"tree_param":{"num_deleted":"0","num_feature":"33","num_nodes":"15","size_leaf_vector":"1"}},{"base_weights":[-1.7043315E-2,-1.05840445E-1,1.8548395E-1,-2.388817E-1,7.045662E-2,2.1122244E-1,-4.6127398E-2,-2.174568E-2,-4.20102E-2,1.2358016E-3,2.1297244E-2,2.413875E-2,-2.8212767E-3,1.9957793E-3,-1.9837247E-2],"categories":[],"categories_nodes":[],"categories_segments":[],"categories_sizes":[],"default_left":[0,0,0,0,0,0,0,0,0,0,0,0,0,0,0],"id":48,"left_children":[1,3,5,7,9,11,13,-1,-1,-1,-1,-1,-1,-1,-1],"loss_changes":[3.2183136E2,2.918131E2,3.2526962E1,2.7438232E1,4.430641E1,3.5464844E1,5.501013E0,0E0,0E0,0E0,0E0,0E0,0E0,0E0,0E0],"parents":[2147483647,0,0,1,1,2,2,3,3,4,4,5,5,6,6],"right_children":[2,4,6,8,10,12,14,-1,-1,-1,-1,-1,-1,-1,-1],"split_conditions":[1E0,1E0,1E0,1E0,1.5816439E0,1E0,1.5816439E0,-2.174568E-2,-4.20102E-2,1.2358016E-3,2.1297244E-2,2.413875E-2,-2.8212767E-3,1.9957793E-3,-1.9837247E-2],"split_indices":[10,11,1,1,32,0,32,0,0,0,0,0,0,0,0],"split_type":[0,0,0,0,0,0,0,0,0,0,0,0,0,0,0],"sum_hessian":[1.7893496E4,1.2439801E4,5.453695E3,7.089447E3,5.3503535E3,4.90833E3,5.453646E2,6.3418735E3,7.475735E2,3.8016455E3,1.548708E3,4.359139E3,5.4919104E2,3.808971E2,1.6446753E2],"tree_param":{"num_deleted":"0","num_feature":"33","num_nodes":"15","size_leaf_vector":"1"}},{"base_weights":[1.7994842E-2,3.0406652E-2,-2.786095E-2,4.0024456E-2,-2.678142E-2,-1.4645034E-2,-1.7530175E-1,5.614869E-3,7.735175E-4,-8.415059E-3,9.804966E-3,3.036704E-4,-1.2487675E-2,-2.4470095E-2,-3.6309385E-3],"categories":[],"categories_nodes":[],"categories_segments":[],"categories_sizes":[],"default_left":[0,0,0,0,0,0,0,0,0,0,0,0,0,0,0],"id":49,"left_children":[1,3,5,7,9,11,13,-1,-1,-1,-1,-1,-1,-1,-1],"loss_changes":[1.1457993E1,8.714893E0,8.353903E0,7.0606003E0,1.634644E1,7.6736164E0,3.393155E0,0E0,0E0,0E0,0E0,0E0,0E0,0E0,0E0],"parents":[2147483647,0,0,1,1,2,2,3,3,4,4,5,5,6,6],"right_children":[2,4,6,8,10,12,14,-1,-1,-1,-1,-1,-1,-1,-1],"split_conditions":[1E0,1E0,1E0,1.5816439E0,1E0,1E0,1.5816439E0,5.614869E-3,7.735175E-4,-8.415059E-3,9.804966E-3,3.036704E-4,-1.2487675E-2,-2.4470095E-2,-3.6309385E-3],"split_indices":[10,29,9,32,11,26,32,0,0,0,0,0,0,0,0],"split_type":[0,0,0,0,0,0,0,0,0,0,0,0,0,0,0],"sum_hessian":[2.0129154E4,1.584163E4,4.287525E3,1.3561225E4,2.2804062E3,3.935834E3,3.516908E2,9.044134E3,4.5170903E3,1.5626007E3,7.178054E2,3.3926138E3,5.432204E2,2.3406238E2,1.1762842E2],"tree_param":{"num_deleted":"0","num_feature":"33","num_nodes":"15","size_leaf_vector":"1"}},{"base_weights":[-5.6934715E-3,5.019508E-2,-3.0949914E-1,1.20422035E-1,-1.7797454E-1,-3.55978E-1,-1.04557656E-1,8.966425E-3,2.9901663E-2,-2.066616E-2,3.592634E-2,-3.7669405E-2,2.4081966E-2,-1.7559191E-2,4.788695E-2],"categories":[],"categories_nodes":[],"categories_segments":[],"categories_sizes":[],"default_left":[0,0,0,0,0,0,0,0,0,0,0,0,0,0,0],"id":50,"left_children":[1,3,5,7,9,11,13,-1,-1,-1,-1,-1,-1,-1,-1],"loss_changes":[3.159123E2,2.5183224E2,2.7500153E1,6.598497E1,5.7080513E1,2.9219543E1,2.229137E1,0E0,0E0,0E0,0E0,0E0,0E0,0E0,0E0],"parents":[2147483647,0,0,1,1,2,2,3,3,4,4,5,5,6,6],"right_children":[2,4,6,8,10,12,14,-1,-1,-1,-1,-1,-1,-1,-1],"split_conditions":[1E0,1E0,1E0,1E0,1E0,1E0,1E0,8.966425E-3,2.9901663E-2,-2.066616E-2,3.592634E-2,-3.7669405E-2,2.4081966E-2,-1.7559191E-2,4.788695E-2],"split_indices":[10,11,31,29,22,23,1,0,0,0,0,0,0,0,0],"split_type":[0,0,0,0,0,0,0,0,0,0,0,0,0,0,0],"sum_hessian":[1.8603863E4,1.57139375E4,2.8899248E3,1.2016059E4,3.6978787E3,2.3550776E3,5.3484717E2,1.0251956E4,1.764103E3,3.5110151E3,1.8686339E2,2.2764272E3,7.865046E1,4.774188E2,5.742835E1],"tree_param":{"num_deleted":"0","num_feature":"33","num_nodes":"15","size_leaf_vector":"1"}},{"base_weights":[-1.8458443E-2,-1.0122353E-1,1.7148946E-1,-2.2493981E-1,6.0149726E-2,2.1559672E-1,6.781936E-2,-2.0306004E-2,-4.1054007E-2,3.0132046E-3,3.2617353E-2,2.2903342E-2,-1.6190825E-2,1.1108591E-2,-2.9781763E-2],"categories":[],"categories_nodes":[],"categories_segments":[],"categories_sizes":[],"default_left":[0,0,0,0,0,0,0,0,0,0,0,0,0,0,0],"id":51,"left_children":[1,3,5,7,9,11,13,-1,-1,-1,-1,-1,-1,-1,-1],"loss_changes":[2.7708798E2,2.4509935E2,2.4444687E1,2.8135803E1,4.2537006E1,1.9069214E1,2.5313343E1,0E0,0E0,0E0,0E0,0E0,0E0,0E0,0E0],"parents":[2147483647,0,0,1,1,2,2,3,3,4,4,5,5,6,6],"right_children":[2,4,6,8,10,12,14,-1,-1,-1,-1,-1,-1,-1,-1],"split_conditions":[1E0,1E0,1.5816439E0,1E0,1E0,1E0,1E0,-2.0306004E-2,-4.1054007E-2,3.0132046E-3,3.2617353E-2,2.2903342E-2,-1.6190825E-2,1.1108591E-2,-2.9781763E-2],"split_indices":[10,11,32,1,9,23,2,0,0,0,0,0,0,0,0],"split_type":[0,0,0,0,0,0,0,0,0,0,0,0,0,0,0],"sum_hessian":[1.7623176E4,1.2275081E4,5.348095E3,6.9480146E3,5.3270664E3,3.751086E3,1.597009E3,6.2171865E3,7.308279E2,4.787919E3,5.3914746E2,3.6225408E3,1.2854532E2,1.4286501E3,1.6835883E2],"tree_param":{"num_deleted":"0","num_feature":"33","num_nodes":"15","size_leaf_vector":"1"}},{"base_weights":[2.0457193E-2,3.3191975E-2,-2.6805798E-2,3.7729945E-2,-9.851134E-2,-1.2705481E-2,-1.824283E-1,4.4788155E-3,-2.541138E-3,3.4415715E-3,-3.562965E-2,5.8979436E-4,-1.303943E-2,-2.4403496E-2,-5.729914E-3],"categories":[],"categories_nodes":[],"categories_segments":[],"categories_sizes":[],"default_left":[0,0,0,0,0,0,0,0,0,0,0,0,0,0,0],"id":52,"left_children":[1,3,5,7,9,11,13,-1,-1,-1,-1,-1,-1,-1,-1],"loss_changes":[1.2101365E1,9.469282E0,9.362595E0,6.8246E0,1.809817E1,8.57079E0,2.7186766E0,0E0,0E0,0E0,0E0,0E0,0E0,0E0,0E0],"parents":[2147483647,0,0,1,1,2,2,3,3,4,4,5,5,6,6],"right_children":[2,4,6,8,10,12,14,-1,-1,-1,-1,-1,-1,-1,-1],"split_conditions":[1E0,1E0,1E0,1E0,1E0,1E0,1.5816439E0,4.4788155E-3,-2.541138E-3,3.4415715E-3,-3.562965E-2,5.8979436E-4,-1.303943E-2,-2.4403496E-2,-5.729914E-3],"split_indices":[10,22,9,1,13,26,32,0,0,0,0,0,0,0,0],"split_type":[0,0,0,0,0,0,0,0,0,0,0,0,0,0,0],"sum_hessian":[2.0103338E4,1.5836555E4,4.266784E3,1.5309755E4,5.2679956E2,3.9132979E3,3.5348627E2,1.3770698E4,1.539057E3,3.4814493E2,1.7865463E2,3.3799663E3,5.3333154E2,2.3622963E2,1.1725663E2],"tree_param":{"num_deleted":"0","num_feature":"33","num_nodes":"15","size_leaf_vector":"1"}},{"base_weights":[-8.928854E-3,4.259367E-2,-2.9440528E-1,1.0364688E-1,-1.5861583E-1,-3.752182E-1,-1.503595E-1,7.7713924E-3,3.2680023E-2,-1.8576039E-2,3.186741E-2,-3.974508E-2,2.5665948E-2,-2.2694618E-2,4.0588897E-2],"categories":[],"categories_nodes":[],"categories_segments":[],"categories_sizes":[],"default_left":[0,0,0,0,0,0,0,0,0,0,0,0,0,0,0],"id":53,"left_children":[1,3,5,7,9,11,13,-1,-1,-1,-1,-1,-1,-1,-1],"loss_changes":[2.72257E2,1.9264227E2,3.288643E1,6.959665E1,4.7357056E1,2.5560532E1,4.3491623E1,0E0,0E0,0E0,0E0,0E0,0E0,0E0,0E0],"parents":[2147483647,0,0,1,1,2,2,3,3,4,4,5,5,6,6],"right_children":[2,4,6,8,10,12,14,-1,-1,-1,-1,-1,-1,-1,-1],"split_conditions":[1E0,1E0,1.5816439E0,1E0,1E0,1E0,1E0,7.7713924E-3,3.2680023E-2,-1.8576039E-2,3.186741E-2,-3.974508E-2,2.5665948E-2,-2.2694618E-2,4.0588897E-2],"split_indices":[10,11,32,6,22,23,2,0,0,0,0,0,0,0,0],"split_type":[0,0,0,0,0,0,0,0,0,0,0,0,0,0,0],"sum_hessian":[1.850837E4,1.5679413E4,2.8289553E3,1.202971E4,3.649703E3,1.811217E3,1.0177384E3,1.0778477E4,1.2512336E3,3.4538835E3,1.9581934E2,1.7500138E3,6.1203186E1,8.9509045E2,1.226479E2],"tree_param":{"num_deleted":"0","num_feature":"33","num_nodes":"15","size_leaf_vector":"1"}},{"base_weights":[-1.6413499E-2,-9.463908E-2,1.6221228E-1,-2.1600807E-1,5.8282185E-2,1.387732E-1,3.8311863E-1,-1.951344E-2,-3.9700996E-2,8.716091E-3,-2.1215703E-2,1.516161E-2,-2.199006E-2,3.6055084E-2,6.2976256E-2],"categories":[],"categories_nodes":[],"categories_segments":[],"categories_sizes":[],"default_left":[0,0,0,0,0,0,0,0,0,0,0,0,0,0,0],"id":54,"left_children":[1,3,5,7,9,11,13,-1,-1,-1,-1,-1,-1,-1,-1],"loss_changes":[2.4560587E2,2.2688354E2,2.7665009E1,2.5671265E1,4.2267006E1,2.2334244E1,2.6280975E0,0E0,0E0,0E0,0E0,0E0,0E0,0E0,0E0],"parents":[2147483647,0,0,1,1,2,2,3,3,4,4,5,5,6,6],"right_children":[2,4,6,8,10,12,14,-1,-1,-1,-1,-1,-1,-1,-1],"split_conditions":[1E0,1E0,1E0,1E0,1E0,1E0,1E0,-1.951344E-2,-3.9700996E-2,8.716091E-3,-2.1215703E-2,1.516161E-2,-2.199006E-2,3.6055084E-2,6.2976256E-2],"split_indices":[10,11,9,1,1,22,16,0,0,0,0,0,0,0,0],"split_type":[0,0,0,0,0,0,0,0,0,0,0,0,0,0,0],"sum_hessian":[1.7574943E4,1.2222719E4,5.3522246E3,6.8141343E3,5.4085845E3,4.840279E3,5.1194556E2,6.111425E3,7.0270953E2,4.887367E3,5.212173E2,4.6735137E3,1.6676543E2,4.7128506E2,4.0660492E1],"tree_param":{"num_deleted":"0","num_feature":"33","num_nodes":"15","size_leaf_vector":"1"}},{"base_weights":[1.8526552E-2,3.0760696E-2,-2.7153527E-2,3.872112E-2,-3.775833E-2,-1.3112637E-2,-1.8510985E-1,4.7647334E-3,-3.3394394E-3,-9.677719E-3,9.1247475E-3,1.87288E-5,-1.5382605E-2,-2.4126073E-2,-7.515941E-3],"categories":[],"categories_nodes":[],"categories_segments":[],"categories_sizes":[],"default_left":[0,0,0,0,0,0,0,0,0,0,0,0,0,0,0],"id":55,"left_children":[1,3,5,7,9,11,13,-1,-1,-1,-1,-1,-1,-1,-1],"loss_changes":[1.1243991E1,8.656911E0,9.424326E0,9.153667E0,1.2588431E1,7.3072195E0,2.123582E0,0E0,0E0,0E0,0E0,0E0,0E0,0E0,0E0],"parents":[2147483647,0,0,1,1,2,2,3,3,4,4,5,5,6,6],"right_children":[2,4,6,8,10,12,14,-1,-1,-1,-1,-1,-1,-1,-1],"split_conditions":[1E0,1E0,1E0,1E0,1E0,1E0,1.5816439E0,4.7647334E-3,-3.3394394E-3,-9.677719E-3,9.1247475E-3,1.87288E-5,-1.5382605E-2,-2.4126073E-2,-7.515941E-3],"split_indices":[10,0,9,1,11,14,32,0,0,0,0,0,0,0,0],"split_type":[0,0,0,0,0,0,0,0,0,0,0,0,0,0,0],"sum_hessian":[2.0117139E4,1.5867732E4,4.2494062E3,1.4216517E4,1.651216E3,3.903503E3,3.4590314E2,1.2650963E4,1.5655533E3,1.133089E3,5.18127E2,3.567326E3,3.361772E2,2.2817937E2,1.1772376E2],"tree_param":{"num_deleted":"0","num_feature":"33","num_nodes":"15","size_leaf_vector":"1"}},{"base_weights":[-4.1077193E-3,4.469419E-2,-2.8532735E-1,1.0269828E-1,-1.4717868E-1,-3.123892E-1,1.2953532E-1,7.876332E-3,3.0675143E-2,-1.8969512E-2,1.5765121E-2,-3.95337E-2,-1.7078113E-2,4.414178E-3,6.863387E-2],"categories":[],"categories_nodes":[],"categories_segments":[],"categories_sizes":[],"default_left":[0,0,0,0,0,0,0,0,0,0,0,0,0,0,0],"id":56,"left_children":[1,3,5,7,9,11,13,-1,-1,-1,-1,-1,-1,-1,-1],"loss_changes":[2.5130293E2,1.7367227E2,3.0440277E1,5.8495956E1,4.697786E1,2.9793777E1,7.887294E0,0E0,0E0,0E0,0E0,0E0,0E0,0E0,0E0],"parents":[2147483647,0,0,1,1,2,2,3,3,4,4,5,5,6,6],"right_children":[2,4,6,8,10,12,14,-1,-1,-1,-1,-1,-1,-1,-1],"split_conditions":[1E0,1E0,1E0,1E0,1E0,1.5816439E0,1E0,7.876332E-3,3.0675143E-2,-1.8969512E-2,1.5765121E-2,-3.95337E-2,-1.7078113E-2,4.414178E-3,6.863387E-2],"split_indices":[10,11,22,6,1,32,0,0,0,0,0,0,0,0,0],"split_type":[0,0,0,0,0,0,0,0,0,0,0,0,0,0,0],"sum_hessian":[1.83092E4,1.5602445E4,2.7067546E3,1.1980997E4,3.6214482E3,2.5412346E3,1.6551993E2,1.0724432E4,1.2565648E3,3.1785015E3,4.429468E2,1.6014083E3,9.3982635E2,1.4444635E2,2.1073578E1],"tree_param":{"num_deleted":"0","num_feature":"33","num_nodes":"15","size_leaf_vector":"1"}},{"base_weights":[-1.8395962E-2,3.660435E-2,-2.4591917E-1,9.897698E-2,-1.6606928E-1,-2.301766E-1,-5.727083E-1,1.2562511E-2,-1.4183422E-2,-2.0932896E-2,2.3696823E-2,-2.5354674E-2,-9.5552625E-4,-5.846092E-2,-3.9921377E-2],"categories":[],"categories_nodes":[],"categories_segments":[],"categories_sizes":[],"default_left":[0,0,0,0,0,0,0,0,0,0,0,0,0,0,0],"id":57,"left_children":[1,3,5,7,9,11,13,-1,-1,-1,-1,-1,-1,-1,-1],"loss_changes":[2.1688785E2,1.7646405E2,1.7226074E1,6.851444E1,5.7325882E1,1.660318E1,8.541107E-2,0E0,0E0,0E0,0E0,0E0,0E0,0E0,0E0],"parents":[2147483647,0,0,1,1,2,2,3,3,4,4,5,5,6,6],"right_children":[2,4,6,8,10,12,14,-1,-1,-1,-1,-1,-1,-1,-1],"split_conditions":[1E0,1E0,1E0,1E0,1E0,1E0,1E0,1.2562511E-2,-1.4183422E-2,-2.0932896E-2,2.3696823E-2,-2.5354674E-2,-9.5552625E-4,-5.846092E-2,-3.9921377E-2],"split_indices":[13,12,22,0,9,7,0,0,0,0,0,0,0,0,0],"split_type":[0,0,0,0,0,0,0,0,0,0,0,0,0,0,0],"sum_hessian":[1.733011E4,1.3957043E4,3.373066E3,1.0672961E4,3.2840823E3,3.2196677E3,1.5339827E2,9.609998E3,1.0629628E3,2.9661897E3,3.1789267E2,2.9111445E3,3.085231E2,1.413338E2,1.2064459E1],"tree_param":{"num_deleted":"0","num_feature":"33","num_nodes":"15","size_leaf_vector":"1"}},{"base_weights":[2.0463608E-2,1.20310625E-2,7.19369E-2,2.2647522E-2,-2.7414024E-2,6.355483E-2,1.6730107E-1,3.276181E-3,-2.7299274E-3,-1.160778E-3,-2.0528486E-2,5.160047E-3,9.809393E-3,2.1296522E-2,-2.9061828E-2],"categories":[],"categories_nodes":[],"categories_segments":[],"categories_sizes":[],"default_left":[0,0,0,0,0,0,0,0,0,0,0,0,0,0,0],"id":58,"left_children":[1,3,5,7,9,11,13,-1,-1,-1,-1,-1,-1,-1,-1],"loss_changes":[8.731351E0,7.2399693E0,2.25286E0,6.8822775E0,1.030597E1,1.0703182E0,4.833023E0,0E0,0E0,0E0,0E0,0E0,0E0,0E0,0E0],"parents":[2147483647,0,0,1,1,2,2,3,3,4,4,5,5,6,6],"right_children":[2,4,6,8,10,12,14,-1,-1,-1,-1,-1,-1,-1,-1],"split_conditions":[1E0,1E0,1E0,1E0,1E0,1E0,1E0,3.276181E-3,-2.7299274E-3,-1.160778E-3,-2.0528486E-2,5.160047E-3,9.809393E-3,2.1296522E-2,-2.9061828E-2],"split_indices":[25,10,18,29,9,11,22,0,0,0,0,0,0,0,0],"split_type":[0,0,0,0,0,0,0,0,0,0,0,0,0,0,0],"sum_hessian":[2.0116957E4,1.7286287E4,2.83067E3,1.3620752E4,3.6655354E3,2.6035007E3,2.271692E2,1.1327304E4,2.2934485E3,3.3673645E3,2.981709E2,1.9359437E3,6.675569E2,2.0705629E2,2.0112919E1],"tree_param":{"num_deleted":"0","num_feature":"33","num_nodes":"15","size_leaf_vector":"1"}},{"base_weights":[-8.018375E-3,3.6061645E-2,-2.676452E-1,8.926594E-2,-1.4416106E-1,-3.176191E-1,-5.0185725E-2,6.6427956E-3,2.8426707E-2,-1.8452056E-2,1.4218137E-2,-3.4036834E-2,2.7365524E-2,-1.3255036E-2,5.716586E-2],"categories":[],"categories_nodes":[],"categories_segments":[],"categories_sizes":[],"default_left":[0,0,0,0,0,0,0,0,0,0,0,0,0,0,0],"id":59,"left_children":[1,3,5,7,9,11,13,-1,-1,-1,-1,-1,-1,-1,-1],"loss_changes":[2.0839232E2,1.4927374E2,2.8704971E1,5.3507187E1,4.103376E1,2.8997162E1,2.5431156E1,0E0,0E0,0E0,0E0,0E0,0E0,0E0,0E0],"parents":[2147483647,0,0,1,1,2,2,3,3,4,4,5,5,6,6],"right_children":[2,4,6,8,10,12,14,-1,-1,-1,-1,-1,-1,-1,-1],"split_conditions":[1E0,1E0,1E0,1E0,1E0,1E0,1E0,6.6427956E-3,2.8426707E-2,-1.8452056E-2,1.4218137E-2,-3.4036834E-2,2.7365524E-2,-1.3255036E-2,5.716586E-2],"split_indices":[10,11,31,6,1,23,1,0,0,0,0,0,0,0,0],"split_type":[0,0,0,0,0,0,0,0,0,0,0,0,0,0,0],"sum_hessian":[1.8207336E4,1.5565458E4,2.641877E3,1.2018061E4,3.5473972E3,2.1478286E3,4.9404846E2,1.0759302E4,1.2587588E3,3.1094773E3,4.3792014E2,2.0686611E3,7.916729E1,4.3695914E2,5.7089336E1],"tree_param":{"num_deleted":"0","num_feature":"33","num_nodes":"15","size_leaf_vector":"1"}},{"base_weights":[-1.6002985E-2,3.5389375E-2,-2.3065507E-1,9.279845E-2,-1.5352507E-1,-2.545886E-1,-9.515855E-3,1.193895E-2,-1.433822E-2,-1.9334937E-2,2.0842133E-2,-2.825505E-2,-2.8332418E-3,1.7487094E-3,-5.194947E-2],"categories":[],"categories_nodes":[],"categories_segments":[],"categories_sizes":[],"default_left":[0,0,0,0,0,0,0,0,0,0,0,0,0,0,0],"id":60,"left_children":[1,3,5,7,9,11,13,-1,-1,-1,-1,-1,-1,-1,-1],"loss_changes":[1.901913E2,1.5088045E2,1.7624344E1,6.702265E1,4.6777603E1,1.9004166E1,4.5023274E0,0E0,0E0,0E0,0E0,0E0,0E0,0E0,0E0],"parents":[2147483647,0,0,1,1,2,2,3,3,4,4,5,5,6,6],"right_children":[2,4,6,8,10,12,14,-1,-1,-1,-1,-1,-1,-1,-1],"split_conditions":[1E0,1E0,1E0,1E0,1E0,1E0,1E0,1.193895E-2,-1.433822E-2,-1.9334937E-2,2.0842133E-2,-2.825505E-2,-2.8332418E-3,1.7487094E-3,-5.194947E-2],"split_indices":[13,12,7,1,9,4,22,0,0,0,0,0,0,0,0],"split_type":[0,0,0,0,0,0,0,0,0,0,0,0,0,0,0],"sum_hessian":[1.7239041E4,1.3909613E4,3.3294277E3,1.0668178E4,3.241436E3,3.004143E3,3.2528458E2,9.589062E3,1.0791162E3,2.9205583E3,3.2087784E2,2.6734907E3,3.3065237E2,3.098443E2,1.5440283E1],"tree_param":{"num_deleted":"0","num_feature":"33","num_nodes":"15","size_leaf_vector":"1"}},{"base_weights":[1.9385993E-2,1.1001942E-2,7.077416E-2,3.9706817E-3,7.613028E-2,6.2118776E-2,1.6714796E-1,-3.5808803E-4,6.452277E-3,1.005935E-2,7.3004194E-4,7.098224E-3,-1.6658449E-3,1.279358E-2,5.130461E-2],"categories":[],"categories_nodes":[],"categories_segments":[],"categories_sizes":[],"default_left":[0,0,0,0,0,0,0,0,0,0,0,0,0,0,0],"id":61,"left_children":[1,3,5,7,9,11,13,-1,-1,-1,-1,-1,-1,-1,-1],"loss_changes":[8.687645E0,7.939699E0,2.3489847E0,7.1565304E0,2.8439407E0,1.8144827E0,3.0878587E0,0E0,0E0,0E0,0E0,0E0,0E0,0E0,0E0],"parents":[2147483647,0,0,1,1,2,2,3,3,4,4,5,5,6,6],"right_children":[2,4,6,8,10,12,14,-1,-1,-1,-1,-1,-1,-1,-1],"split_conditions":[1E0,1E0,1E0,1E0,1E0,1E0,1E0,-3.5808803E-4,6.452277E-3,1.005935E-2,7.3004194E-4,7.098224E-3,-1.6658449E-3,1.279358E-2,5.130461E-2],"split_indices":[25,5,18,3,11,8,8,0,0,0,0,0,0,0,0],"split_type":[0,0,0,0,0,0,0,0,0,0,0,0,0,0,0],"sum_hessian":[2.0165197E4,1.7337736E4,2.8274617E3,1.5649297E4,1.6884385E3,2.5959617E3,2.3150012E2,1.3914887E4,1.7344103E3,1.2453573E3,4.4308118E2,2.3335103E3,2.6245135E2,2.0915903E2,2.2341095E1],"tree_param":{"num_deleted":"0","num_feature":"33","num_nodes":"15","size_leaf_vector":"1"}},{"base_weights":[-6.623957E-3,3.6897995E-2,-2.6163194E-1,8.880236E-2,-1.3995795E-1,-2.801116E-1,3.1449705E-1,6.516306E-3,2.8308427E-2,-1.7675662E-2,1.850979E-2,-3.0924281E-2,1.2761399E-2,1.7342227E-2,1.1153432E-1],"categories":[],"categories_nodes":[],"categories_segments":[],"categories_sizes":[],"default_left":[0,0,0,0,0,0,0,0,0,0,0,0,0,0,0],"id":62,"left_children":[1,3,5,7,9,11,13,-1,-1,-1,-1,-1,-1,-1,-1],"loss_changes":[2.0037732E2,1.4158519E2,2.811148E1,5.4744186E1,4.1894485E1,3.0337234E1,9.101846E0,0E0,0E0,0E0,0E0,0E0,0E0,0E0,0E0],"parents":[2147483647,0,0,1,1,2,2,3,3,4,4,5,5,6,6],"right_children":[2,4,6,8,10,12,14,-1,-1,-1,-1,-1,-1,-1,-1],"split_conditions":[1E0,1E0,1E0,1E0,1E0,1E0,1E0,6.516306E-3,2.8308427E-2,-1.7675662E-2,1.850979E-2,-3.0924281E-2,1.2761399E-2,1.7342227E-2,1.1153432E-1],"split_indices":[10,11,24,0,0,22,0,0,0,0,0,0,0,0,0],"split_type":[0,0,0,0,0,0,0,0,0,0,0,0,0,0,0],"sum_hessian":[1.8052672E4,1.5421547E4,2.6311243E3,1.1922873E4,3.4986733E3,2.54985E3,8.127418E1,1.0630714E4,1.2921594E3,3.1432869E3,3.5538654E2,2.3800425E3,1.6980772E2,7.01358E1,1.1138377E1],"tree_param":{"num_deleted":"0","num_feature":"33","num_nodes":"15","size_leaf_vector":"1"}},{"base_weights":[-1.476032E-2,-8.1284866E-2,1.3532244E-1,-1.8251862E-1,3.9441988E-2,1.4776474E-1,-2.0482051E-1,-2.0566044E-2,2.309676E-3,7.0008314E-3,-2.4482606E-2,1.6937656E-2,-4.5326306E-3,-2.6346156E-2,4.4955313E-2],"categories":[],"categories_nodes":[],"categories_segments":[],"categories_sizes":[],"default_left":[0,0,0,0,0,0,0,0,0,0,0,0,0,0,0],"id":63,"left_children":[1,3,5,7,9,11,13,-1,-1,-1,-1,-1,-1,-1,-1],"loss_changes":[1.7028795E2,1.4443575E2,2.2199234E1,3.0590332E1,4.6856483E1,2.109803E1,7.227802E0,0E0,0E0,0E0,0E0,0E0,0E0,0E0,0E0],"parents":[2147483647,0,0,1,1,2,2,3,3,4,4,5,5,6,6],"right_children":[2,4,6,8,10,12,14,-1,-1,-1,-1,-1,-1,-1,-1],"split_conditions":[1E0,1E0,1E0,1E0,1E0,1E0,1E0,-2.0566044E-2,2.309676E-3,7.0008314E-3,-2.4482606E-2,1.6937656E-2,-4.5326306E-3,-2.6346156E-2,4.4955313E-2],"split_indices":[10,11,22,4,6,1,16,0,0,0,0,0,0,0,0],"split_type":[0,0,0,0,0,0,0,0,0,0,0,0,0,0,0],"sum_hessian":[1.7053662E4,1.181645E4,5.2372124E3,6.426821E3,5.3896294E3,5.052943E3,1.842692E2,5.7766626E3,6.501584E2,4.867047E3,5.225825E2,4.544428E3,5.0851486E2,1.6966246E2,1.4606746E1],"tree_param":{"num_deleted":"0","num_feature":"33","num_nodes":"15","size_leaf_vector":"1"}},{"base_weights":[2.0461813E-2,3.168401E-2,-2.1694642E-2,3.5723586E-2,-8.989896E-2,-7.7639474E-3,-1.8546431E-1,2.9544472E-3,9.259031E-3,4.468847E-3,-3.4944605E-2,8.9987705E-4,-1.4551035E-2,-1.5639676E-2,-3.694793E-2],"categories":[],"categories_nodes":[],"categories_segments":[],"categories_sizes":[],"default_left":[0,0,0,0,0,0,0,0,0,0,0,0,0,0,0],"id":64,"left_children":[1,3,5,7,9,11,13,-1,-1,-1,-1,-1,-1,-1,-1],"loss_changes":[9.524883E0,7.812331E0,9.656039E0,5.404852E0,1.788559E1,9.0117E0,1.717001E0,0E0,0E0,0E0,0E0,0E0,0E0,0E0,0E0],"parents":[2147483647,0,0,1,1,2,2,3,3,4,4,5,5,6,6],"right_children":[2,4,6,8,10,12,14,-1,-1,-1,-1,-1,-1,-1,-1],"split_conditions":[1E0,1E0,1E0,1E0,1E0,1E0,1E0,2.9544472E-3,9.259031E-3,4.468847E-3,-3.4944605E-2,8.9987705E-4,-1.4551035E-2,-1.5639676E-2,-3.694793E-2],"split_indices":[10,22,9,5,13,8,29,0,0,0,0,0,0,0,0],"split_type":[0,0,0,0,0,0,0,0,0,0,0,0,0,0,0],"sum_hessian":[2.013097E4,1.5898881E4,4.2320903E3,1.5388313E4,5.1056784E2,3.901284E3,3.3080643E2,1.3881478E4,1.5068356E3,3.367664E2,1.7380145E2,3.4788665E3,4.2241763E2,2.8727722E2,4.352923E1],"tree_param":{"num_deleted":"0","num_feature":"33","num_nodes":"15","size_leaf_vector":"1"}},{"base_weights":[-9.14019E-3,3.0691665E-2,-2.5278744E-1,7.758754E-2,-1.2990397E-1,-3.3325222E-1,-1.1753065E-1,4.9775383E-3,2.3865217E-2,-1.5511897E-2,3.2718614E-2,-3.5713233E-2,2.6283313E-2,-1.8445399E-2,3.608824E-2],"categories":[],"categories_nodes":[],"categories_segments":[],"categories_sizes":[],"default_left":[0,0,0,0,0,0,0,0,0,0,0,0,0,0,0],"id":65,"left_children":[1,3,5,7,9,11,13,-1,-1,-1,-1,-1,-1,-1,-1],"loss_changes":[1.7543709E2,1.1702572E2,2.7604965E1,5.3860542E1,4.0528553E1,2.2755936E1,3.0450115E1,0E0,0E0,0E0,0E0,0E0,0E0,0E0,0E0],"parents":[2147483647,0,0,1,1,2,2,3,3,4,4,5,5,6,6],"right_children":[2,4,6,8,10,12,14,-1,-1,-1,-1,-1,-1,-1,-1],"split_conditions":[1E0,1E0,1.5816439E0,1E0,1E0,1E0,1E0,4.9775383E-3,2.3865217E-2,-1.5511897E-2,3.2718614E-2,-3.5713233E-2,2.6283313E-2,-1.8445399E-2,3.608824E-2],"split_indices":[10,11,32,29,22,23,2,0,0,0,0,0,0,0,0],"split_type":[0,0,0,0,0,0,0,0,0,0,0,0,0,0,0],"sum_hessian":[1.8075324E4,1.5536299E4,2.5390256E3,1.2025286E4,3.5110127E3,1.5910437E3,9.479819E2,1.0255676E4,1.7696104E3,3.3280825E3,1.8293031E2,1.5301447E3,6.0899086E1,8.321852E2,1.1579668E2],"tree_param":{"num_deleted":"0","num_feature":"33","num_nodes":"15","size_leaf_vector":"1"}},{"base_weights":[-2.1066198E-2,-8.463841E-2,1.2175928E-1,-1.7588559E-1,2.2819482E-2,1.440681E-1,-7.671662E-2,-1.5296402E-2,-3.7983198E-2,-1.3157201E-3,2.3985505E-2,1.7005822E-2,-5.955694E-3,-1.0141055E-2,1.7897157E-2],"categories":[],"categories_nodes":[],"categories_segments":[],"categories_sizes":[],"default_left":[0,0,0,0,0,0,0,0,0,0,0,0,0,0,0],"id":66,"left_children":[1,3,5,7,9,11,13,-1,-1,-1,-1,-1,-1,-1,-1],"loss_changes":[1.5403232E2,1.1510794E2,2.3147163E1,2.9619583E1,4.210162E1,2.4871033E1,3.3558793E0,0E0,0E0,0E0,0E0,0E0,0E0,0E0,0E0],"parents":[2147483647,0,0,1,1,2,2,3,3,4,4,5,5,6,6],"right_children":[2,4,6,8,10,12,14,-1,-1,-1,-1,-1,-1,-1,-1],"split_conditions":[1E0,1E0,1E0,1E0,1E0,1E0,1E0,-1.5296402E-2,-3.7983198E-2,-1.3157201E-3,2.3985505E-2,1.7005822E-2,-5.955694E-3,-1.0141055E-2,1.7897157E-2],"split_indices":[10,11,1,1,31,0,16,0,0,0,0,0,0,0,0],"split_type":[0,0,0,0,0,0,0,0,0,0,0,0,0,0,0],"sum_hessian":[1.6962275E4,1.1738035E4,5.2242407E3,6.3474785E3,5.3905566E3,4.696613E3,5.276282E2,5.7077354E3,6.3974304E2,4.624861E3,7.65696E2,4.1651494E3,5.3146295E2,4.8170895E2,4.5919247E1],"tree_param":{"num_deleted":"0","num_feature":"33","num_nodes":"15","size_leaf_vector":"1"}},{"base_weights":[1.7206637E-2,2.6742479E-2,-1.9149333E-2,3.3648983E-2,-3.6066882E-2,-1.558417E-3,-1.2883283E-1,4.1675535E-3,-2.8529395E-3,-9.410321E-3,8.587342E-3,1.0795512E-3,-1.3664292E-2,-1.5791109E-2,2.1081999E-2],"categories":[],"categories_nodes":[],"categories_segments":[],"categories_sizes":[],"default_left":[0,0,0,0,0,0,0,0,0,0,0,0,0,0,0],"id":67,"left_children":[1,3,5,7,9,11,13,-1,-1,-1,-1,-1,-1,-1,-1],"loss_changes":[6.9927607E0,6.932543E0,8.08696E0,7.1859245E0,1.121381E1,6.0312185E0,5.7547665E0,0E0,0E0,0E0,0E0,0E0,0E0,0E0,0E0],"parents":[2147483647,0,0,1,1,2,2,3,3,4,4,5,5,6,6],"right_children":[2,4,6,8,10,12,14,-1,-1,-1,-1,-1,-1,-1,-1],"split_conditions":[1E0,1E0,1E0,1E0,1E0,1E0,1E0,4.1675535E-3,-2.8529395E-3,-9.410321E-3,8.587342E-3,1.0795512E-3,-1.3664292E-2,-1.5791109E-2,2.1081999E-2],"split_indices":[10,1,27,0,11,14,19,0,0,0,0,0,0,0,0],"split_type":[0,0,0,0,0,0,0,0,0,0,0,0,0,0,0],"sum_hessian":[2.0167896E4,1.5977427E4,4.19047E3,1.4395018E4,1.5824087E3,3.6121687E3,5.7830133E2,1.2749522E4,1.6454948E3,1.0722905E3,5.101181E2,3.3103467E3,3.0182214E2,5.331892E2,4.5112152E1],"tree_param":{"num_deleted":"0","num_feature":"33","num_nodes":"15","size_leaf_vector":"1"}},{"base_weights":[-6.147737E-3,3.120802E-2,-2.3741603E-1,7.473196E-2,-1.2024427E-1,-3.1966436E-1,-1.02330305E-1,5.0747E-3,2.7383676E-2,-1.5543118E-2,1.760151E-2,-3.5308283E-2,5.5245673E-3,-1.7137071E-2,3.91416E-2],"categories":[],"categories_nodes":[],"categories_segments":[],"categories_sizes":[],"default_left":[0,0,0,0,0,0,0,0,0,0,0,0,0,0,0],"id":68,"left_children":[1,3,5,7,9,11,13,-1,-1,-1,-1,-1,-1,-1,-1],"loss_changes":[1.541683E2,1.0128364E2,2.7539398E1,5.698076E1,3.5783043E1,1.9339035E1,3.2131218E1,0E0,0E0,0E0,0E0,0E0,0E0,0E0,0E0],"parents":[2147483647,0,0,1,1,2,2,3,3,4,4,5,5,6,6],"right_children":[2,4,6,8,10,12,14,-1,-1,-1,-1,-1,-1,-1,-1],"split_conditions":[1E0,1E0,1.5816439E0,1E0,1E0,1E0,1E0,5.0747E-3,2.7383676E-2,-1.5543118E-2,1.760151E-2,-3.5308283E-2,5.5245673E-3,-1.7137071E-2,3.91416E-2],"split_indices":[10,11,32,1,0,22,1,0,0,0,0,0,0,0,0],"split_type":[0,0,0,0,0,0,0,0,0,0,0,0,0,0,0],"sum_hessian":[1.7843344E4,1.5362733E4,2.48061E3,1.1933752E4,3.4289817E3,1.5409938E3,9.396162E2,1.0651843E4,1.2819086E3,3.06538E3,3.6360175E2,1.4149291E3,1.260648E2,8.249207E2,1.14695496E2],"tree_param":{"num_deleted":"0","num_feature":"33","num_nodes":"15","size_leaf_vector":"1"}},{"base_weights":[-2.1587264E-2,2.1386383E-2,-2.0965518E-1,6.7230776E-2,-1.336418E-1,-1.9374965E-1,-5.577452E-1,9.213906E-3,-1.5777092E-2,-1.7596867E-2,2.2958841E-2,-2.1820826E-2,1.8709205E-3,-5.791341E-2,-3.1585805E-2],"categories":[],"categories_nodes":[],"categories_segments":[],"categories_sizes":[],"default_left":[0,0,0,0,0,0,0,0,0,0,0,0,0,0,0],"id":69,"left_children":[1,3,5,7,9,11,13,-1,-1,-1,-1,-1,-1,-1,-1],"loss_changes":[1.3606978E2,9.741384E1,1.7229767E1,5.9297607E1,4.813473E1,1.5573761E1,5.2228165E-1,0E0,0E0,0E0,0E0,0E0,0E0,0E0,0E0],"parents":[2147483647,0,0,1,1,2,2,3,3,4,4,5,5,6,6],"right_children":[2,4,6,8,10,12,14,-1,-1,-1,-1,-1,-1,-1,-1],"split_conditions":[1E0,1E0,1E0,1E0,1E0,1E0,1E0,9.213906E-3,-1.5777092E-2,-1.7596867E-2,2.2958841E-2,-2.1820826E-2,1.8709205E-3,-5.791341E-2,-3.1585805E-2],"split_indices":[13,12,22,1,9,4,0,0,0,0,0,0,0,0,0],"split_type":[0,0,0,0,0,0,0,0,0,0,0,0,0,0,0],"sum_hessian":[1.683467E4,1.3704149E4,3.130521E3,1.0576939E4,3.1272095E3,2.995215E3,1.3530592E2,9.523278E3,1.0536617E3,2.801293E3,3.2591647E2,2.6859744E3,3.0924084E2,1.23032555E2,1.2273369E1],"tree_param":{"num_deleted":"0","num_feature":"33","num_nodes":"15","size_leaf_vector":"1"}},{"base_weights":[2.3455642E-2,1.4921581E-2,7.557717E-2,8.180421E-3,7.5748034E-2,8.646204E-2,-3.4137648E-2,1.3635358E-4,6.3504563E-3,1.1107243E-2,-2.5506534E-3,8.224658E-3,2.9178986E-2,-8.527139E-3,5.5443287E-2],"categories":[],"categories_nodes":[],"categories_segments":[],"categories_sizes":[],"default_left":[0,0,0,0,0,0,0,0,0,0,0,0,0,0,0],"id":70,"left_children":[1,3,5,7,9,11,13,-1,-1,-1,-1,-1,-1,-1,-1],"loss_changes":[8.934307E0,7.077984E0,3.3779888E0,5.86138E0,6.162756E0,2.2016182E0,7.745529E0,0E0,0E0,0E0,0E0,0E0,0E0,0E0,0E0],"parents":[2147483647,0,0,1,1,2,2,3,3,4,4,5,5,6,6],"right_children":[2,4,6,8,10,12,14,-1,-1,-1,-1,-1,-1,-1,-1],"split_conditions":[1E0,1E0,1E0,1E0,1E0,1E0,1E0,1.3635358E-4,6.3504563E-3,1.1107243E-2,-2.5506534E-3,8.224658E-3,2.9178986E-2,-8.527139E-3,5.5443287E-2],"split_indices":[25,3,17,5,11,23,9,0,0,0,0,0,0,0,0],"split_type":[0,0,0,0,0,0,0,0,0,0,0,0,0,0,0],"sum_hessian":[2.0087281E4,1.7262166E4,2.8251152E3,1.5540956E4,1.7212096E3,2.5703237E3,2.5479144E2,1.3837022E4,1.7039343E3,1.275969E3,4.4524057E2,2.519988E3,5.033586E1,2.3521185E2,1.9579578E1],"tree_param":{"num_deleted":"0","num_feature":"33","num_nodes":"15","size_leaf_vector":"1"}},{"base_weights":[-6.109674E-3,2.8565558E-2,-2.2740784E-1,7.0135616E-2,-1.1709875E-1,-2.4786808E-1,3.0266955E-1,4.8101065E-3,2.5345817E-2,-1.4358227E-2,3.3660773E-2,-2.76548E-2,1.5768833E-2,3.7013713E-2,-3.0717421E-2],"categories":[],"categories_nodes":[],"categories_segments":[],"categories_sizes":[],"default_left":[0,0,0,0,0,0,0,0,0,0,0,0,0,0,0],"id":71,"left_children":[1,3,5,7,9,11,13,-1,-1,-1,-1,-1,-1,-1,-1],"loss_changes":[1.3613007E2,9.287878E1,2.6138412E1,4.8188652E1,4.096853E1,2.6962997E1,3.8068876E0,0E0,0E0,0E0,0E0,0E0,0E0,0E0,0E0],"parents":[2147483647,0,0,1,1,2,2,3,3,4,4,5,5,6,6],"right_children":[2,4,6,8,10,12,14,-1,-1,-1,-1,-1,-1,-1,-1],"split_conditions":[1E0,1E0,1E0,1E0,1E0,1E0,1E0,4.8101065E-3,2.5345817E-2,-1.4358227E-2,3.3660773E-2,-2.76548E-2,1.5768833E-2,3.7013713E-2,-3.0717421E-2],"split_indices":[10,11,23,0,22,22,3,0,0,0,0,0,0,0,0],"split_type":[0,0,0,0,0,0,0,0,0,0,0,0,0,0,0],"sum_hessian":[1.7738285E4,1.5336136E4,2.4021497E3,1.1931587E4,3.4045488E3,2.3133887E3,8.876112E1,1.0652471E4,1.2791171E3,3.2174265E3,1.8712236E2,2.1608938E3,1.5249477E2,8.027347E1,8.487662E0],"tree_param":{"num_deleted":"0","num_feature":"33","num_nodes":"15","size_leaf_vector":"1"}},{"base_weights":[-1.42819155E-2,2.7697947E-2,-1.9879064E-1,4.0999972E-4,2.7557567E-1,-1.8158597E-1,-5.6050056E-1,4.4693025E-3,-1.5532165E-2,2.5945922E-2,4.6650395E-2,-1.5777899E-2,-3.943051E-2,-5.7409137E-2,-3.913715E-2],"categories":[],"categories_nodes":[],"categories_segments":[],"categories_sizes":[],"default_left":[0,0,0,0,0,0,0,0,0,0,0,0,0,0,0],"id":72,"left_children":[1,3,5,7,9,11,13,-1,-1,-1,-1,-1,-1,-1,-1],"loss_changes":[1.2936116E2,9.203096E1,1.9162231E1,8.453851E1,4.0308075E0,1.4910027E1,9.729004E-2,0E0,0E0,0E0,0E0,0E0,0E0,0E0,0E0],"parents":[2147483647,0,0,1,1,2,2,3,3,4,4,5,5,6,6],"right_children":[2,4,6,8,10,12,14,-1,-1,-1,-1,-1,-1,-1,-1],"split_conditions":[1E0,1E0,1E0,1E0,1E0,1E0,1E0,4.4693025E-3,-1.5532165E-2,2.5945922E-2,4.6650395E-2,-1.5777899E-2,-3.943051E-2,-5.7409137E-2,-3.913715E-2],"split_indices":[13,9,22,12,16,1,0,0,0,0,0,0,0,0,0],"split_type":[0,0,0,0,0,0,0,0,0,0,0,0,0,0,0],"sum_hessian":[1.6699424E4,1.3604863E4,3.0945608E3,1.2256582E4,1.3482804E3,2.9554856E3,1.390752E2,9.543544E3,2.7130386E3,1.2455051E3,1.0277533E2,2.6595745E3,2.9591104E2,1.2651439E2,1.2560807E1],"tree_param":{"num_deleted":"0","num_feature":"33","num_nodes":"15","size_leaf_vector":"1"}},{"base_weights":[2.2854663E-2,1.5386456E-2,6.84223E-2,2.4426328E-2,-1.8711276E-2,6.0654562E-2,1.5646194E-1,2.840313E-3,-8.708164E-3,-3.204528E-3,1.3542863E-2,5.1237848E-3,1.5297231E-2,1.8978922E-2,-1.9336352E-2],"categories":[],"categories_nodes":[],"categories_segments":[],"categories_sizes":[],"default_left":[0,0,0,0,0,0,0,0,0,0,0,0,0,0,0],"id":73,"left_children":[1,3,5,7,9,11,13,-1,-1,-1,-1,-1,-1,-1,-1],"loss_changes":[6.862952E0,5.3425536E0,1.9326477E0,6.0774794E0,7.47009E0,2.262251E0,2.7137613E0,0E0,0E0,0E0,0E0,0E0,0E0,0E0,0E0],"parents":[2147483647,0,0,1,1,2,2,3,3,4,4,5,5,6,6],"right_children":[2,4,6,8,10,12,14,-1,-1,-1,-1,-1,-1,-1,-1],"split_conditions":[1E0,1E0,1E0,1E0,1E0,1E0,1E0,2.840313E-3,-8.708164E-3,-3.204528E-3,1.3542863E-2,5.1237848E-3,1.5297231E-2,1.8978922E-2,-1.9336352E-2],"split_indices":[25,10,20,24,19,18,24,0,0,0,0,0,0,0,0],"split_type":[0,0,0,0,0,0,0,0,0,0,0,0,0,0,0],"sum_hessian":[2.016894E4,1.7330012E4,2.8389263E3,1.3698577E4,3.6314353E3,2.6103076E3,2.2861871E2,1.3227577E4,4.7100052E2,3.3430354E3,2.8839993E2,2.3701042E3,2.4020343E2,2.0915074E2,1.9467966E1],"tree_param":{"num_deleted":"0","num_feature":"33","num_nodes":"15","size_leaf_vector":"1"}},{"base_weights":[-8.389091E-3,2.451013E-2,-2.2051615E-1,6.2997E-2,-1.122221E-1,-3.073547E-1,-8.240368E-2,3.548801E-3,2.2267023E-2,-1.5268472E-2,1.5384748E-2,-3.451274E-2,8.274796E-3,-1.604132E-2,4.250121E-2],"categories":[],"categories_nodes":[],"categories_segments":[],"categories_sizes":[],"default_left":[0,0,0,0,0,0,0,0,0,0,0,0,0,0,0],"id":74,"left_children":[1,3,5,7,9,11,13,-1,-1,-1,-1,-1,-1,-1,-1],"loss_changes":[1.2296896E2,8.028335E1,2.8349373E1,5.2282665E1,3.6100517E1,2.1426819E1,3.627342E1,0E0,0E0,0E0,0E0,0E0,0E0,0E0,0E0],"parents":[2147483647,0,0,1,1,2,2,3,3,4,4,5,5,6,6],"right_children":[2,4,6,8,10,12,14,-1,-1,-1,-1,-1,-1,-1,-1],"split_conditions":[1E0,1E0,1.5816439E0,1E0,1E0,1E0,1E0,3.548801E-3,2.2267023E-2,-1.5268472E-2,1.5384748E-2,-3.451274E-2,8.274796E-3,-1.604132E-2,4.250121E-2],"split_indices":[10,11,32,29,1,22,2,0,0,0,0,0,0,0,0],"split_type":[0,0,0,0,0,0,0,0,0,0,0,0,0,0,0],"sum_hessian":[1.7618547E4,1.5253703E4,2.3648438E3,1.1903649E4,3.3500547E3,1.4511833E3,9.1366046E2,1.0155287E4,1.7483615E3,2.9082134E3,4.4184128E2,1.3231785E3,1.2800482E2,7.9250543E2,1.21155E2],"tree_param":{"num_deleted":"0","num_feature":"33","num_nodes":"15","size_leaf_vector":"1"}},{"base_weights":[-1.385801E-2,2.637875E-2,-1.9423611E-1,2.3095172E-3,2.4780722E-1,-1.787987E-1,-5.2963036E-1,4.396326E-3,-1.4446281E-2,2.2123994E-2,3.8738955E-2,-1.5498576E-2,-3.874704E-2,-5.4973006E-2,-2.9066438E-2],"categories":[],"categories_nodes":[],"categories_segments":[],"categories_sizes":[],"default_left":[0,0,0,0,0,0,0,0,0,0,0,0,0,0,0],"id":75,"left_children":[1,3,5,7,9,11,13,-1,-1,-1,-1,-1,-1,-1,-1],"loss_changes":[1.2083196E2,7.2548096E1,1.56267395E1,7.5074135E1,4.86335E0,1.43717575E1,4.7951126E-1,0E0,0E0,0E0,0E0,0E0,0E0,0E0,0E0],"parents":[2147483647,0,0,1,1,2,2,3,3,4,4,5,5,6,6],"right_children":[2,4,6,8,10,12,14,-1,-1,-1,-1,-1,-1,-1,-1],"split_conditions":[1E0,1E0,1E0,1E0,1E0,1E0,1E0,4.396326E-3,-1.4446281E-2,2.2123994E-2,3.8738955E-2,-1.5498576E-2,-3.874704E-2,-5.4973006E-2,-2.9066438E-2],"split_indices":[13,9,22,12,31,1,0,0,0,0,0,0,0,0,0],"split_type":[0,0,0,0,0,0,0,0,0,0,0,0,0,0,0],"sum_hessian":[1.664679E4,1.3611369E4,3.0354207E3,1.2277786E4,1.3335828E3,2.9033206E3,1.3209996E2,9.564187E3,2.7135999E3,1.1225149E3,2.1106783E2,2.6075034E3,2.9581717E2,1.2065138E2,1.1448578E1],"tree_param":{"num_deleted":"0","num_feature":"33","num_nodes":"15","size_leaf_vector":"1"}},{"base_weights":[2.0410616E-2,1.480167E-2,7.128234E-2,4.8648254E-3,4.3894406E-2,1.00742996E-1,-1.3988303E-2,-4.2157216E-4,7.879703E-3,2.7805618E-3,1.747796E-2,1.3022155E-2,2.656239E-3,-3.393947E-3,2.0042514E-2],"categories":[],"categories_nodes":[],"categories_segments":[],"categories_sizes":[],"default_left":[0,0,0,0,0,0,0,0,0,0,0,0,0,0,0],"id":76,"left_children":[1,3,5,7,9,11,13,-1,-1,-1,-1,-1,-1,-1,-1],"loss_changes":[5.7449512E0,5.243612E0,5.024541E0,9.078279E0,9.719743E0,3.2465353E0,2.2069693E0,0E0,0E0,0E0,0E0,0E0,0E0,0E0,0E0],"parents":[2147483647,0,0,1,1,2,2,3,3,4,4,5,5,6,6],"right_children":[2,4,6,8,10,12,14,-1,-1,-1,-1,-1,-1,-1,-1],"split_conditions":[1E0,1E0,1E0,1E0,1E0,1E0,1E0,-4.2157216E-4,7.879703E-3,2.7805618E-3,1.747796E-2,1.3022155E-2,2.656239E-3,-3.393947E-3,2.0042514E-2],"split_indices":[3,11,11,5,6,10,19,0,0,0,0,0,0,0,0],"split_type":[0,0,0,0,0,0,0,0,0,0,0,0,0,0,0],"sum_hessian":[2.0136627E4,1.8138074E4,1.9985521E3,1.3521031E4,4.617043E3,1.4852299E3,5.1332227E2,1.2042841E4,1.4781903E3,4.112709E3,5.0433383E2,1.0623202E3,4.2290967E2,4.7039383E2,4.2928432E1],"tree_param":{"num_deleted":"0","num_feature":"33","num_nodes":"15","size_leaf_vector":"1"}},{"base_weights":[-1.1051566E-2,1.9369155E-2,-2.1089064E-1,-4.5231218E-3,2.2236232E-1,-2.969423E-1,-7.6163664E-2,-3.252339E-3,2.1134939E-2,2.0566346E-2,6.561412E-2,-3.3189353E-2,6.562163E-3,-1.4251237E-2,3.60896E-2],"categories":[],"categories_nodes":[],"categories_segments":[],"categories_sizes":[],"default_left":[0,0,0,0,0,0,0,0,0,0,0,0,0,0,0],"id":77,"left_children":[1,3,5,7,9,11,13,-1,-1,-1,-1,-1,-1,-1,-1],"loss_changes":[1.0646044E2,7.371484E1,2.6800087E1,8.220761E1,1.14587555E1,1.7908356E1,2.6239979E1,0E0,0E0,0E0,0E0,0E0,0E0,0E0,0E0],"parents":[2147483647,0,0,1,1,2,2,3,3,4,4,5,5,6,6],"right_children":[2,4,6,8,10,12,14,-1,-1,-1,-1,-1,-1,-1,-1],"split_conditions":[1E0,1E0,1.5816439E0,1E0,1E0,1E0,1E0,-3.252339E-3,2.1134939E-2,2.0566346E-2,6.561412E-2,-3.3189353E-2,6.562163E-3,-1.4251237E-2,3.60896E-2],"split_indices":[10,0,32,6,24,22,2,0,0,0,0,0,0,0,0],"split_type":[0,0,0,0,0,0,0,0,0,0,0,0,0,0,0],"sum_hessian":[1.7510432E4,1.5197829E4,2.312603E3,1.3598289E4,1.5995397E3,1.4104979E3,9.0210516E2,1.2037753E4,1.5605365E3,1.5416654E3,5.787423E1,1.2865581E3,1.2393986E2,7.8379376E2,1.183114E2],"tree_param":{"num_deleted":"0","num_feature":"33","num_nodes":"15","size_leaf_vector":"1"}},{"base_weights":[-1.869702E-2,1.7875891E-2,-1.851878E-1,-7.935773E-3,2.5221774E-1,-1.6946861E-1,-5.369174E-1,3.2341033E-3,-1.51704E-2,2.2572344E-2,3.904716E-2,-1.4441415E-2,-3.960028E-2,-5.4961365E-2,-3.533099E-2],"categories":[],"categories_nodes":[],"categories_segments":[],"categories_sizes":[],"default_left":[0,0,0,0,0,0,0,0,0,0,0,0,0,0,0],"id":78,"left_children":[1,3,5,7,9,11,13,-1,-1,-1,-1,-1,-1,-1,-1],"loss_changes":[1.0017861E2,8.159709E1,1.6291878E1,7.037221E1,4.81443E0,1.6049477E1,1.002388E-1,0E0,0E0,0E0,0E0,0E0,0E0,0E0,0E0],"parents":[2147483647,0,0,1,1,2,2,3,3,4,4,5,5,6,6],"right_children":[2,4,6,8,10,12,14,-1,-1,-1,-1,-1,-1,-1,-1],"split_conditions":[1E0,1E0,1E0,1E0,1E0,1E0,1E0,3.2341033E-3,-1.51704E-2,2.2572344E-2,3.904716E-2,-1.4441415E-2,-3.960028E-2,-5.4961365E-2,-3.533099E-2],"split_indices":[13,9,22,12,31,6,20,0,0,0,0,0,0,0,0],"split_type":[0,0,0,0,0,0,0,0,0,0,0,0,0,0,0],"sum_hessian":[1.6450705E4,1.3488572E4,2.9621323E3,1.21511455E4,1.337426E3,2.836833E3,1.25299385E2,9.492568E3,2.6585771E3,1.1245544E3,2.1287161E2,2.5558013E3,2.810317E2,1.1533095E2,9.968433E0],"tree_param":{"num_deleted":"0","num_feature":"33","num_nodes":"15","size_leaf_vector":"1"}},{"base_weights":[1.7629005E-2,1.0686045E-2,5.9905924E-2,1.647986E-2,-5.133477E-2,5.147969E-2,1.5358193E-1,1.0289539E-3,7.232646E-3,-8.808808E-3,5.435402E-3,4.253255E-3,1.4196341E-2,1.817052E-2,-1.6091865E-2],"categories":[],"categories_nodes":[],"categories_segments":[],"categories_sizes":[],"default_left":[0,0,0,0,0,0,0,0,0,0,0,0,0,0,0],"id":79,"left_children":[1,3,5,7,9,11,13,-1,-1,-1,-1,-1,-1,-1,-1],"loss_changes":[5.921285E0,6.228297E0,2.2382898E0,5.4789066E0,5.7571487E0,2.1088324E0,2.1019473E0,0E0,0E0,0E0,0E0,0E0,0E0,0E0,0E0],"parents":[2147483647,0,0,1,1,2,2,3,3,4,4,5,5,6,6],"right_children":[2,4,6,8,10,12,14,-1,-1,-1,-1,-1,-1,-1,-1],"split_conditions":[1E0,1E0,1E0,1E0,1E0,1E0,1E0,1.0289539E-3,7.232646E-3,-8.808808E-3,5.435402E-3,4.253255E-3,1.4196341E-2,1.817052E-2,-1.6091865E-2],"split_indices":[25,15,18,3,12,20,22,0,0,0,0,0,0,0,0],"split_type":[0,0,0,0,0,0,0,0,0,0,0,0,0,0,0],"sum_hessian":[2.0174064E4,1.7329387E4,2.844679E3,1.5849503E4,1.479883E3,2.6113367E3,2.3334232E2,1.4269035E4,1.5804683E3,1.0981631E3,3.8172E2,2.3776973E3,2.3363947E2,2.1457668E2,1.8765636E1],"tree_param":{"num_deleted":"0","num_feature":"33","num_nodes":"15","size_leaf_vector":"1"}},{"base_weights":[-9.358526E-3,1.882474E-2,-2.0047362E-1,5.819027E-3,3.363471E-1,-2.2162233E-1,4.2792973E-1,4.2153723E-3,-1.2669866E-2,4.4971075E-2,9.4440095E-3,-2.5233714E-2,1.5022541E-2,2.7956543E-2,1.1958486E-1],"categories":[],"categories_nodes":[],"categories_segments":[],"categories_sizes":[],"default_left":[0,0,0,0,0,0,0,0,0,0,0,0,0,0,0],"id":80,"left_children":[1,3,5,7,9,11,13,-1,-1,-1,-1,-1,-1,-1,-1],"loss_changes":[9.4168396E1,6.2919033E1,2.99553E1,7.048741E1,1.6398323E1,2.4871689E1,8.039233E0,0E0,0E0,0E0,0E0,0E0,0E0,0E0,0E0],"parents":[2147483647,0,0,1,1,2,2,3,3,4,4,5,5,6,6],"right_children":[2,4,6,8,10,12,14,-1,-1,-1,-1,-1,-1,-1,-1],"split_conditions":[1E0,1E0,1E0,1E0,1E0,1E0,1E0,4.2153723E-3,-1.2669866E-2,4.4971075E-2,9.4440095E-3,-2.5233714E-2,1.5022541E-2,2.7956543E-2,1.1958486E-1],"split_indices":[10,22,24,11,12,22,0,0,0,0,0,0,0,0,0],"split_type":[0,0,0,0,0,0,0,0,0,0,0,0,0,0,0],"sum_hessian":[1.7481416E4,1.5235567E4,2.2458496E3,1.4637052E4,5.9851514E2,2.1733533E3,7.24962E1,1.14878955E4,3.149156E3,4.0694943E2,1.9156567E2,2.0078273E3,1.6552603E2,6.1900826E1,1.0595376E1],"tree_param":{"num_deleted":"0","num_feature":"33","num_nodes":"15","size_leaf_vector":"1"}},{"base_weights":[-1.4729317E-2,1.9469539E-2,-1.7185502E-1,-5.0857104E-3,2.4291325E-1,-1.5680736E-1,-5.266611E-1,1.9335803E-3,-2.048619E-2,2.6311416E-2,1.1173243E-2,-1.3257818E-2,-3.8228665E-2,-5.49692E-2,-2.012127E-2],"categories":[],"categories_nodes":[],"categories_segments":[],"categories_sizes":[],"default_left":[0,0,0,0,0,0,0,0,0,0,0,0,0,0,0],"id":81,"left_children":[1,3,5,7,9,11,13,-1,-1,-1,-1,-1,-1,-1,-1],"loss_changes":[8.782885E1,7.365246E1,1.5515724E1,5.901554E1,3.492775E0,1.5268829E1,7.7716064E-1,0E0,0E0,0E0,0E0,0E0,0E0,0E0,0E0],"parents":[2147483647,0,0,1,1,2,2,3,3,4,4,5,5,6,6],"right_children":[2,4,6,8,10,12,14,-1,-1,-1,-1,-1,-1,-1,-1],"split_conditions":[1E0,1E0,1E0,1E0,1E0,1E0,1E0,1.9335803E-3,-2.048619E-2,2.6311416E-2,1.1173243E-2,-1.3257818E-2,-3.8228665E-2,-5.49692E-2,-2.012127E-2],"split_indices":[13,9,22,0,29,6,19,0,0,0,0,0,0,0,0],"split_type":[0,0,0,0,0,0,0,0,0,0,0,0,0,0,0],"sum_hessian":[1.6343133E4,1.3422552E4,2.9205808E3,1.2094418E4,1.3281337E3,2.803139E3,1.1744173E2,1.0777797E4,1.3166216E3,1.1500312E3,1.7810233E2,2.5325847E3,2.7055432E2,1.09036545E2,8.405181E0],"tree_param":{"num_deleted":"0","num_feature":"33","num_nodes":"15","size_leaf_vector":"1"}},{"base_weights":[2.199025E-2,2.6766745E-2,-2.0459713E-2,2.150936E-2,5.8534198E-2,-7.7177435E-2,1.5333678E-1,1.580663E-3,6.749719E-3,6.631484E-3,-2.103861E-3,-4.9974527E-3,-2.2963526E-2,1.785484E-2,-8.826013E-3],"categories":[],"categories_nodes":[],"categories_segments":[],"categories_sizes":[],"default_left":[0,0,0,0,0,0,0,0,0,0,0,0,0,0,0],"id":82,"left_children":[1,3,5,7,9,11,13,-1,-1,-1,-1,-1,-1,-1,-1],"loss_changes":[4.073241E0,3.0141764E0,2.0042719E1,4.0620284E0,1.5883179E0,6.3453045E0,3.063263E0,0E0,0E0,0E0,0E0,0E0,0E0,0E0,0E0],"parents":[2147483647,0,0,1,1,2,2,3,3,4,4,5,5,6,6],"right_children":[2,4,6,8,10,12,14,-1,-1,-1,-1,-1,-1,-1,-1],"split_conditions":[1E0,1E0,1E0,1E0,1E0,1E0,1E0,1.580663E-3,6.749719E-3,6.631484E-3,-2.103861E-3,-4.9974527E-3,-2.2963526E-2,1.785484E-2,-8.826013E-3],"split_indices":[8,25,11,5,17,27,21,0,0,0,0,0,0,0,0],"split_type":[0,0,0,0,0,0,0,0,0,0,0,0,0,0,0],"sum_hessian":[2.0085086E4,1.805401E4,2.0310779E3,1.5491848E4,2.562161E3,1.5317529E3,4.9932492E2,1.3783914E4,1.7079336E3,2.334099E3,2.2806192E2,1.3009529E3,2.3080005E2,4.5237836E2,4.694656E1],"tree_param":{"num_deleted":"0",